digraph Tree {
node [shape=box] ;
0 [label="Mothers_Height_in_Inches <= 63.5\ngini = 0.5\nsamples = 28447\nvalue = [22339, 22661]\nclass = c-section"] ;
1 [label="#_of_Previous_Cesareans <= 0.5\ngini = 0.497\nsamples = 12291\nvalue = [9011, 10452]\nclass = c-section"] ;
0 -> 1 [labeldistance=2.5, labelangle=45, headlabel="True"] ;
2 [label="Prior_Births_Living <= 0.5\ngini = 0.48\nsamples = 9109\nvalue = [8679, 5762]\nclass = vaginal"] ;
1 -> 2 ;
3 [label="Pre_Pregnancy_Weight <= 149.5\ngini = 0.499\nsamples = 4514\nvalue = [3407, 3716]\nclass = c-section"] ;
2 -> 3 ;
4 [label="NO_MORBIDITY <= 0.5\ngini = 0.498\nsamples = 2823\nvalue = [2373, 2126]\nclass = vaginal"] ;
3 -> 4 ;
5 [label="Age_of_Mother <= 37.0\ngini = 0.315\nsamples = 59\nvalue = [74, 18]\nclass = vaginal"] ;
4 -> 5 ;
6 [label="BMI <= 18.2\ngini = 0.28\nsamples = 57\nvalue = [74, 15]\nclass = vaginal"] ;
5 -> 6 ;
7 [label="BMI <= 16.7\ngini = 0.375\nsamples = 3\nvalue = [1, 3]\nclass = c-section"] ;
6 -> 7 ;
8 [label="gini = 0.0\nsamples = 1\nvalue = [0, 2]\nclass = c-section"] ;
7 -> 8 ;
9 [label="Age_of_Mother <= 28.0\ngini = 0.5\nsamples = 2\nvalue = [1, 1]\nclass = vaginal"] ;
7 -> 9 ;
10 [label="gini = 0.0\nsamples = 1\nvalue = [0, 1]\nclass = c-section"] ;
9 -> 10 ;
11 [label="gini = 0.0\nsamples = 1\nvalue = [1, 0]\nclass = vaginal"] ;
9 -> 11 ;
12 [label="Mothers_Height_in_Inches <= 59.5\ngini = 0.242\nsamples = 54\nvalue = [73, 12]\nclass = vaginal"] ;
6 -> 12 ;
13 [label="Age_of_Mother <= 22.0\ngini = 0.49\nsamples = 5\nvalue = [4, 3]\nclass = vaginal"] ;
12 -> 13 ;
14 [label="gini = 0.0\nsamples = 2\nvalue = [3, 0]\nclass = vaginal"] ;
13 -> 14 ;
15 [label="Weight_Gain <= 18.0\ngini = 0.375\nsamples = 3\nvalue = [1, 3]\nclass = c-section"] ;
13 -> 15 ;
16 [label="gini = 0.0\nsamples = 1\nvalue = [1, 0]\nclass = vaginal"] ;
15 -> 16 ;
17 [label="gini = 0.0\nsamples = 2\nvalue = [0, 3]\nclass = c-section"] ;
15 -> 17 ;
18 [label="Pre_Pregnancy_Weight <= 119.5\ngini = 0.204\nsamples = 49\nvalue = [69, 9]\nclass = vaginal"] ;
12 -> 18 ;
19 [label="Prior_Terminations <= 0.5\ngini = 0.059\nsamples = 22\nvalue = [32, 1]\nclass = vaginal"] ;
18 -> 19 ;
20 [label="gini = 0.0\nsamples = 19\nvalue = [30, 0]\nclass = vaginal"] ;
19 -> 20 ;
21 [label="Age_of_Mother <= 25.5\ngini = 0.444\nsamples = 3\nvalue = [2, 1]\nclass = vaginal"] ;
19 -> 21 ;
22 [label="gini = 0.0\nsamples = 2\nvalue = [2, 0]\nclass = vaginal"] ;
21 -> 22 ;
23 [label="gini = 0.0\nsamples = 1\nvalue = [0, 1]\nclass = c-section"] ;
21 -> 23 ;
24 [label="Induction_of_labor_Y <= 0.5\ngini = 0.292\nsamples = 27\nvalue = [37, 8]\nclass = vaginal"] ;
18 -> 24 ;
25 [label="Weight_Gain <= 27.0\ngini = 0.312\nsamples = 16\nvalue = [25, 6]\nclass = vaginal"] ;
24 -> 25 ;
26 [label="gini = 0.0\nsamples = 1\nvalue = [0, 1]\nclass = c-section"] ;
25 -> 26 ;
27 [label="Prior_Terminations <= 0.5\ngini = 0.278\nsamples = 15\nvalue = [25, 5]\nclass = vaginal"] ;
25 -> 27 ;
28 [label="BMI <= 22.6\ngini = 0.311\nsamples = 13\nvalue = [21, 5]\nclass = vaginal"] ;
27 -> 28 ;
29 [label="gini = 0.0\nsamples = 2\nvalue = [0, 2]\nclass = c-section"] ;
28 -> 29 ;
30 [label="BMI <= 24.25\ngini = 0.219\nsamples = 11\nvalue = [21, 3]\nclass = vaginal"] ;
28 -> 30 ;
31 [label="gini = 0.0\nsamples = 7\nvalue = [15, 0]\nclass = vaginal"] ;
30 -> 31 ;
32 [label="Age_of_Mother <= 24.0\ngini = 0.444\nsamples = 4\nvalue = [6, 3]\nclass = vaginal"] ;
30 -> 32 ;
33 [label="gini = 0.0\nsamples = 1\nvalue = [3, 0]\nclass = vaginal"] ;
32 -> 33 ;
34 [label="BMI <= 25.55\ngini = 0.5\nsamples = 3\nvalue = [3, 3]\nclass = vaginal"] ;
32 -> 34 ;
35 [label="gini = 0.0\nsamples = 2\nvalue = [0, 3]\nclass = c-section"] ;
34 -> 35 ;
36 [label="gini = 0.0\nsamples = 1\nvalue = [3, 0]\nclass = vaginal"] ;
34 -> 36 ;
37 [label="gini = 0.0\nsamples = 2\nvalue = [4, 0]\nclass = vaginal"] ;
27 -> 37 ;
38 [label="Pre_Pregnancy_Weight <= 124.5\ngini = 0.245\nsamples = 11\nvalue = [12, 2]\nclass = vaginal"] ;
24 -> 38 ;
39 [label="gini = 0.0\nsamples = 2\nvalue = [0, 2]\nclass = c-section"] ;
38 -> 39 ;
40 [label="gini = 0.0\nsamples = 9\nvalue = [12, 0]\nclass = vaginal"] ;
38 -> 40 ;
41 [label="gini = 0.0\nsamples = 2\nvalue = [0, 3]\nclass = c-section"] ;
5 -> 41 ;
42 [label="Medical_Attendant <= 2.5\ngini = 0.499\nsamples = 2764\nvalue = [2299, 2108]\nclass = vaginal"] ;
4 -> 42 ;
43 [label="BMI <= 27.45\ngini = 0.499\nsamples = 2533\nvalue = [1935, 2098]\nclass = c-section"] ;
42 -> 43 ;
44 [label="Induction_of_labor_N <= 0.5\ngini = 0.5\nsamples = 2402\nvalue = [1877, 1951]\nclass = c-section"] ;
43 -> 44 ;
45 [label="Induction_of_labor_Y <= 0.5\ngini = 0.5\nsamples = 753\nvalue = [608, 594]\nclass = vaginal"] ;
44 -> 45 ;
46 [label="Prior_Births_Dead <= 0.5\ngini = 0.444\nsamples = 2\nvalue = [2, 1]\nclass = vaginal"] ;
45 -> 46 ;
47 [label="gini = 0.0\nsamples = 1\nvalue = [0, 1]\nclass = c-section"] ;
46 -> 47 ;
48 [label="gini = 0.0\nsamples = 1\nvalue = [2, 0]\nclass = vaginal"] ;
46 -> 48 ;
49 [label="Age_of_Mother <= 24.5\ngini = 0.5\nsamples = 751\nvalue = [606, 593]\nclass = vaginal"] ;
45 -> 49 ;
50 [label="Marital_Status_  <= 0.5\ngini = 0.478\nsamples = 312\nvalue = [301, 197]\nclass = vaginal"] ;
49 -> 50 ;
51 [label="NO_RISK <= 0.5\ngini = 0.481\nsamples = 290\nvalue = [272, 184]\nclass = vaginal"] ;
50 -> 51 ;
52 [label="Pre_Pregnancy_Weight <= 104.0\ngini = 0.499\nsamples = 46\nvalue = [32, 35]\nclass = c-section"] ;
51 -> 52 ;
53 [label="gini = 0.0\nsamples = 5\nvalue = [6, 0]\nclass = vaginal"] ;
52 -> 53 ;
54 [label="Mothers_Height_in_Inches <= 59.5\ngini = 0.489\nsamples = 41\nvalue = [26, 35]\nclass = c-section"] ;
52 -> 54 ;
55 [label="gini = 0.0\nsamples = 4\nvalue = [5, 0]\nclass = vaginal"] ;
54 -> 55 ;
56 [label="Medical_Attendant <= 1.5\ngini = 0.469\nsamples = 37\nvalue = [21, 35]\nclass = c-section"] ;
54 -> 56 ;
57 [label="Cigarette_Consumption <= 2.0\ngini = 0.489\nsamples = 31\nvalue = [20, 27]\nclass = c-section"] ;
56 -> 57 ;
58 [label="gini = 0.5\nsamples = 27\nvalue = [19, 19]\nclass = vaginal"] ;
57 -> 58 ;
59 [label="gini = 0.198\nsamples = 4\nvalue = [1, 8]\nclass = c-section"] ;
57 -> 59 ;
60 [label="Mothers_Height_in_Inches <= 62.5\ngini = 0.198\nsamples = 6\nvalue = [1, 8]\nclass = c-section"] ;
56 -> 60 ;
61 [label="gini = 0.0\nsamples = 5\nvalue = [0, 8]\nclass = c-section"] ;
60 -> 61 ;
62 [label="gini = 0.0\nsamples = 1\nvalue = [1, 0]\nclass = vaginal"] ;
60 -> 62 ;
63 [label="BMI <= 26.35\ngini = 0.473\nsamples = 244\nvalue = [240, 149]\nclass = vaginal"] ;
51 -> 63 ;
64 [label="Weight_Gain <= 28.5\ngini = 0.464\nsamples = 225\nvalue = [227, 131]\nclass = vaginal"] ;
63 -> 64 ;
65 [label="Weight_Gain <= 17.5\ngini = 0.371\nsamples = 86\nvalue = [104, 34]\nclass = vaginal"] ;
64 -> 65 ;
66 [label="Prior_Terminations <= 0.5\ngini = 0.472\nsamples = 25\nvalue = [21, 13]\nclass = vaginal"] ;
65 -> 66 ;
67 [label="gini = 0.417\nsamples = 19\nvalue = [19, 8]\nclass = vaginal"] ;
66 -> 67 ;
68 [label="gini = 0.408\nsamples = 6\nvalue = [2, 5]\nclass = c-section"] ;
66 -> 68 ;
69 [label="BMI <= 20.75\ngini = 0.322\nsamples = 61\nvalue = [83, 21]\nclass = vaginal"] ;
65 -> 69 ;
70 [label="gini = 0.142\nsamples = 21\nvalue = [36, 3]\nclass = vaginal"] ;
69 -> 70 ;
71 [label="gini = 0.4\nsamples = 40\nvalue = [47, 18]\nclass = vaginal"] ;
69 -> 71 ;
72 [label="Pre_Pregnancy_Weight <= 120.5\ngini = 0.493\nsamples = 139\nvalue = [123, 97]\nclass = vaginal"] ;
64 -> 72 ;
73 [label="Pre_Pregnancy_Weight <= 107.5\ngini = 0.498\nsamples = 75\nvalue = [56, 63]\nclass = c-section"] ;
72 -> 73 ;
74 [label="gini = 0.491\nsamples = 37\nvalue = [34, 26]\nclass = vaginal"] ;
73 -> 74 ;
75 [label="gini = 0.468\nsamples = 38\nvalue = [22, 37]\nclass = c-section"] ;
73 -> 75 ;
76 [label="Age_of_Mother <= 16.5\ngini = 0.447\nsamples = 64\nvalue = [67, 34]\nclass = vaginal"] ;
72 -> 76 ;
77 [label="gini = 0.0\nsamples = 4\nvalue = [6, 0]\nclass = vaginal"] ;
76 -> 77 ;
78 [label="gini = 0.46\nsamples = 60\nvalue = [61, 34]\nclass = vaginal"] ;
76 -> 78 ;
79 [label="Cigarette_Consumption <= 5.0\ngini = 0.487\nsamples = 19\nvalue = [13, 18]\nclass = c-section"] ;
63 -> 79 ;
80 [label="Mothers_Height_in_Inches <= 59.5\ngini = 0.499\nsamples = 17\nvalue = [13, 14]\nclass = c-section"] ;
79 -> 80 ;
81 [label="gini = 0.0\nsamples = 3\nvalue = [6, 0]\nclass = vaginal"] ;
80 -> 81 ;
82 [label="BMI <= 26.65\ngini = 0.444\nsamples = 14\nvalue = [7, 14]\nclass = c-section"] ;
80 -> 82 ;
83 [label="gini = 0.36\nsamples = 11\nvalue = [4, 13]\nclass = c-section"] ;
82 -> 83 ;
84 [label="gini = 0.375\nsamples = 3\nvalue = [3, 1]\nclass = vaginal"] ;
82 -> 84 ;
85 [label="gini = 0.0\nsamples = 2\nvalue = [0, 4]\nclass = c-section"] ;
79 -> 85 ;
86 [label="Pre_Pregnancy_Weight <= 124.5\ngini = 0.427\nsamples = 22\nvalue = [29, 13]\nclass = vaginal"] ;
50 -> 86 ;
87 [label="Prior_Terminations <= 0.5\ngini = 0.494\nsamples = 9\nvalue = [8, 10]\nclass = c-section"] ;
86 -> 87 ;
88 [label="BMI <= 18.3\ngini = 0.5\nsamples = 8\nvalue = [8, 8]\nclass = vaginal"] ;
87 -> 88 ;
89 [label="gini = 0.0\nsamples = 1\nvalue = [4, 0]\nclass = vaginal"] ;
88 -> 89 ;
90 [label="Weight_Gain <= 19.5\ngini = 0.444\nsamples = 7\nvalue = [4, 8]\nclass = c-section"] ;
88 -> 90 ;
91 [label="Weight_Gain <= 14.0\ngini = 0.32\nsamples = 2\nvalue = [4, 1]\nclass = vaginal"] ;
90 -> 91 ;
92 [label="gini = 0.0\nsamples = 1\nvalue = [0, 1]\nclass = c-section"] ;
91 -> 92 ;
93 [label="gini = 0.0\nsamples = 1\nvalue = [4, 0]\nclass = vaginal"] ;
91 -> 93 ;
94 [label="gini = 0.0\nsamples = 5\nvalue = [0, 7]\nclass = c-section"] ;
90 -> 94 ;
95 [label="gini = 0.0\nsamples = 1\nvalue = [0, 2]\nclass = c-section"] ;
87 -> 95 ;
96 [label="Weight_Gain <= 62.5\ngini = 0.219\nsamples = 13\nvalue = [21, 3]\nclass = vaginal"] ;
86 -> 96 ;
97 [label="Prior_Terminations <= 0.5\ngini = 0.087\nsamples = 12\nvalue = [21, 1]\nclass = vaginal"] ;
96 -> 97 ;
98 [label="gini = 0.0\nsamples = 10\nvalue = [20, 0]\nclass = vaginal"] ;
97 -> 98 ;
99 [label="Mothers_Height_in_Inches <= 62.0\ngini = 0.5\nsamples = 2\nvalue = [1, 1]\nclass = vaginal"] ;
97 -> 99 ;
100 [label="gini = 0.0\nsamples = 1\nvalue = [1, 0]\nclass = vaginal"] ;
99 -> 100 ;
101 [label="gini = 0.0\nsamples = 1\nvalue = [0, 1]\nclass = c-section"] ;
99 -> 101 ;
102 [label="gini = 0.0\nsamples = 1\nvalue = [0, 2]\nclass = c-section"] ;
96 -> 102 ;
103 [label="Pre_Pregnancy_Weight <= 101.5\ngini = 0.492\nsamples = 439\nvalue = [305, 396]\nclass = c-section"] ;
49 -> 103 ;
104 [label="Mothers_Height_in_Inches <= 57.5\ngini = 0.466\nsamples = 30\nvalue = [29, 17]\nclass = vaginal"] ;
103 -> 104 ;
105 [label="gini = 0.0\nsamples = 4\nvalue = [7, 0]\nclass = vaginal"] ;
104 -> 105 ;
106 [label="Prior_Terminations <= 0.5\ngini = 0.492\nsamples = 26\nvalue = [22, 17]\nclass = vaginal"] ;
104 -> 106 ;
107 [label="Cigarette_Consumption <= 3.5\ngini = 0.458\nsamples = 21\nvalue = [20, 11]\nclass = vaginal"] ;
106 -> 107 ;
108 [label="BMI <= 17.45\ngini = 0.444\nsamples = 20\nvalue = [20, 10]\nclass = vaginal"] ;
107 -> 108 ;
109 [label="Mothers_Height_in_Inches <= 62.5\ngini = 0.32\nsamples = 3\nvalue = [1, 4]\nclass = c-section"] ;
108 -> 109 ;
110 [label="gini = 0.5\nsamples = 2\nvalue = [1, 1]\nclass = vaginal"] ;
109 -> 110 ;
111 [label="gini = 0.0\nsamples = 1\nvalue = [0, 3]\nclass = c-section"] ;
109 -> 111 ;
112 [label="Marital_Status_  <= 0.5\ngini = 0.365\nsamples = 17\nvalue = [19, 6]\nclass = vaginal"] ;
108 -> 112 ;
113 [label="gini = 0.415\nsamples = 11\nvalue = [12, 5]\nclass = vaginal"] ;
112 -> 113 ;
114 [label="gini = 0.219\nsamples = 6\nvalue = [7, 1]\nclass = vaginal"] ;
112 -> 114 ;
115 [label="gini = 0.0\nsamples = 1\nvalue = [0, 1]\nclass = c-section"] ;
107 -> 115 ;
116 [label="Marital_Status_  <= 0.5\ngini = 0.375\nsamples = 5\nvalue = [2, 6]\nclass = c-section"] ;
106 -> 116 ;
117 [label="Prior_Terminations <= 1.5\ngini = 0.245\nsamples = 4\nvalue = [1, 6]\nclass = c-section"] ;
116 -> 117 ;
118 [label="Pre_Pregnancy_Weight <= 98.5\ngini = 0.32\nsamples = 3\nvalue = [1, 4]\nclass = c-section"] ;
117 -> 118 ;
119 [label="gini = 0.0\nsamples = 2\nvalue = [0, 4]\nclass = c-section"] ;
118 -> 119 ;
120 [label="gini = 0.0\nsamples = 1\nvalue = [1, 0]\nclass = vaginal"] ;
118 -> 120 ;
121 [label="gini = 0.0\nsamples = 1\nvalue = [0, 2]\nclass = c-section"] ;
117 -> 121 ;
122 [label="gini = 0.0\nsamples = 1\nvalue = [1, 0]\nclass = vaginal"] ;
116 -> 122 ;
123 [label="Cigarette_Consumption <= 1.0\ngini = 0.488\nsamples = 409\nvalue = [276, 379]\nclass = c-section"] ;
103 -> 123 ;
124 [label="Age_of_Mother <= 36.5\ngini = 0.491\nsamples = 392\nvalue = [271, 356]\nclass = c-section"] ;
123 -> 124 ;
125 [label="Weight_Gain <= 40.5\ngini = 0.494\nsamples = 344\nvalue = [248, 310]\nclass = c-section"] ;
124 -> 125 ;
126 [label="NO_RISK <= 0.5\ngini = 0.5\nsamples = 257\nvalue = [208, 206]\nclass = vaginal"] ;
125 -> 126 ;
127 [label="BMI <= 21.75\ngini = 0.494\nsamples = 60\nvalue = [37, 46]\nclass = c-section"] ;
126 -> 127 ;
128 [label="gini = 0.444\nsamples = 15\nvalue = [12, 6]\nclass = vaginal"] ;
127 -> 128 ;
129 [label="gini = 0.473\nsamples = 45\nvalue = [25, 40]\nclass = c-section"] ;
127 -> 129 ;
130 [label="BMI <= 26.7\ngini = 0.499\nsamples = 197\nvalue = [171, 160]\nclass = vaginal"] ;
126 -> 130 ;
131 [label="gini = 0.5\nsamples = 192\nvalue = [162, 160]\nclass = vaginal"] ;
130 -> 131 ;
132 [label="gini = 0.0\nsamples = 5\nvalue = [9, 0]\nclass = vaginal"] ;
130 -> 132 ;
133 [label="Mothers_Height_in_Inches <= 62.5\ngini = 0.401\nsamples = 87\nvalue = [40, 104]\nclass = c-section"] ;
125 -> 133 ;
134 [label="Weight_Gain <= 50.5\ngini = 0.362\nsamples = 58\nvalue = [24, 77]\nclass = c-section"] ;
133 -> 134 ;
135 [label="gini = 0.401\nsamples = 41\nvalue = [20, 52]\nclass = c-section"] ;
134 -> 135 ;
136 [label="gini = 0.238\nsamples = 17\nvalue = [4, 25]\nclass = c-section"] ;
134 -> 136 ;
137 [label="Marital_Status_  <= 0.5\ngini = 0.467\nsamples = 29\nvalue = [16, 27]\nclass = c-section"] ;
133 -> 137 ;
138 [label="gini = 0.45\nsamples = 27\nvalue = [14, 27]\nclass = c-section"] ;
137 -> 138 ;
139 [label="gini = 0.0\nsamples = 2\nvalue = [2, 0]\nclass = vaginal"] ;
137 -> 139 ;
140 [label="Marital_Status_  <= 0.5\ngini = 0.444\nsamples = 48\nvalue = [23, 46]\nclass = c-section"] ;
124 -> 140 ;
141 [label="Prior_Terminations <= 0.5\ngini = 0.42\nsamples = 40\nvalue = [18, 42]\nclass = c-section"] ;
140 -> 141 ;
142 [label="Mothers_Height_in_Inches <= 62.5\ngini = 0.331\nsamples = 28\nvalue = [9, 34]\nclass = c-section"] ;
141 -> 142 ;
143 [label="gini = 0.382\nsamples = 23\nvalue = [9, 26]\nclass = c-section"] ;
142 -> 143 ;
144 [label="gini = 0.0\nsamples = 5\nvalue = [0, 8]\nclass = c-section"] ;
142 -> 144 ;
145 [label="BMI <= 21.65\ngini = 0.498\nsamples = 12\nvalue = [9, 8]\nclass = vaginal"] ;
141 -> 145 ;
146 [label="gini = 0.32\nsamples = 3\nvalue = [4, 1]\nclass = vaginal"] ;
145 -> 146 ;
147 [label="gini = 0.486\nsamples = 9\nvalue = [5, 7]\nclass = c-section"] ;
145 -> 147 ;
148 [label="BMI <= 26.65\ngini = 0.494\nsamples = 8\nvalue = [5, 4]\nclass = vaginal"] ;
140 -> 148 ;
149 [label="Pre_Pregnancy_Weight <= 127.0\ngini = 0.408\nsamples = 6\nvalue = [5, 2]\nclass = vaginal"] ;
148 -> 149 ;
150 [label="gini = 0.0\nsamples = 2\nvalue = [0, 2]\nclass = c-section"] ;
149 -> 150 ;
151 [label="gini = 0.0\nsamples = 4\nvalue = [5, 0]\nclass = vaginal"] ;
149 -> 151 ;
152 [label="gini = 0.0\nsamples = 2\nvalue = [0, 2]\nclass = c-section"] ;
148 -> 152 ;
153 [label="BMI <= 21.1\ngini = 0.293\nsamples = 17\nvalue = [5, 23]\nclass = c-section"] ;
123 -> 153 ;
154 [label="Pre_Pregnancy_Weight <= 103.5\ngini = 0.444\nsamples = 4\nvalue = [4, 2]\nclass = vaginal"] ;
153 -> 154 ;
155 [label="gini = 0.0\nsamples = 1\nvalue = [2, 0]\nclass = vaginal"] ;
154 -> 155 ;
156 [label="Age_of_Mother <= 33.0\ngini = 0.5\nsamples = 3\nvalue = [2, 2]\nclass = vaginal"] ;
154 -> 156 ;
157 [label="gini = 0.0\nsamples = 2\nvalue = [0, 2]\nclass = c-section"] ;
156 -> 157 ;
158 [label="gini = 0.0\nsamples = 1\nvalue = [2, 0]\nclass = vaginal"] ;
156 -> 158 ;
159 [label="Cigarette_Consumption <= 6.0\ngini = 0.087\nsamples = 13\nvalue = [1, 21]\nclass = c-section"] ;
153 -> 159 ;
160 [label="Prior_Terminations <= 1.0\ngini = 0.165\nsamples = 7\nvalue = [1, 10]\nclass = c-section"] ;
159 -> 160 ;
161 [label="gini = 0.0\nsamples = 6\nvalue = [0, 10]\nclass = c-section"] ;
160 -> 161 ;
162 [label="gini = 0.0\nsamples = 1\nvalue = [1, 0]\nclass = vaginal"] ;
160 -> 162 ;
163 [label="gini = 0.0\nsamples = 6\nvalue = [0, 11]\nclass = c-section"] ;
159 -> 163 ;
164 [label="NO_RISK <= 0.5\ngini = 0.499\nsamples = 1649\nvalue = [1269, 1357]\nclass = c-section"] ;
44 -> 164 ;
165 [label="Marital_Status_  <= 0.5\ngini = 0.392\nsamples = 182\nvalue = [80, 219]\nclass = c-section"] ;
164 -> 165 ;
166 [label="BMI <= 27.35\ngini = 0.379\nsamples = 159\nvalue = [66, 194]\nclass = c-section"] ;
165 -> 166 ;
167 [label="Medical_Attendant <= 1.5\ngini = 0.373\nsamples = 158\nvalue = [64, 194]\nclass = c-section"] ;
166 -> 167 ;
168 [label="Age_of_Mother <= 34.5\ngini = 0.352\nsamples = 145\nvalue = [55, 186]\nclass = c-section"] ;
167 -> 168 ;
169 [label="BMI <= 18.05\ngini = 0.396\nsamples = 114\nvalue = [53, 142]\nclass = c-section"] ;
168 -> 169 ;
170 [label="BMI <= 17.85\ngini = 0.48\nsamples = 3\nvalue = [3, 2]\nclass = vaginal"] ;
169 -> 170 ;
171 [label="Pre_Pregnancy_Weight <= 98.5\ngini = 0.444\nsamples = 2\nvalue = [1, 2]\nclass = c-section"] ;
170 -> 171 ;
172 [label="gini = 0.0\nsamples = 1\nvalue = [0, 2]\nclass = c-section"] ;
171 -> 172 ;
173 [label="gini = 0.0\nsamples = 1\nvalue = [1, 0]\nclass = vaginal"] ;
171 -> 173 ;
174 [label="gini = 0.0\nsamples = 1\nvalue = [2, 0]\nclass = vaginal"] ;
170 -> 174 ;
175 [label="Pre_Pregnancy_Weight <= 108.5\ngini = 0.388\nsamples = 111\nvalue = [50, 140]\nclass = c-section"] ;
169 -> 175 ;
176 [label="Prior_Terminations <= 0.5\ngini = 0.147\nsamples = 16\nvalue = [2, 23]\nclass = c-section"] ;
175 -> 176 ;
177 [label="gini = 0.231\nsamples = 11\nvalue = [2, 13]\nclass = c-section"] ;
176 -> 177 ;
178 [label="gini = 0.0\nsamples = 5\nvalue = [0, 10]\nclass = c-section"] ;
176 -> 178 ;
179 [label="BMI <= 22.15\ngini = 0.413\nsamples = 95\nvalue = [48, 117]\nclass = c-section"] ;
175 -> 179 ;
180 [label="gini = 0.48\nsamples = 22\nvalue = [18, 27]\nclass = c-section"] ;
179 -> 180 ;
181 [label="gini = 0.375\nsamples = 73\nvalue = [30, 90]\nclass = c-section"] ;
179 -> 181 ;
182 [label="BMI <= 23.85\ngini = 0.083\nsamples = 31\nvalue = [2, 44]\nclass = c-section"] ;
168 -> 182 ;
183 [label="gini = 0.0\nsamples = 18\nvalue = [0, 30]\nclass = c-section"] ;
182 -> 183 ;
184 [label="BMI <= 24.15\ngini = 0.219\nsamples = 13\nvalue = [2, 14]\nclass = c-section"] ;
182 -> 184 ;
185 [label="Prior_Terminations <= 0.5\ngini = 0.375\nsamples = 3\nvalue = [1, 3]\nclass = c-section"] ;
184 -> 185 ;
186 [label="gini = 0.0\nsamples = 2\nvalue = [0, 3]\nclass = c-section"] ;
185 -> 186 ;
187 [label="gini = 0.0\nsamples = 1\nvalue = [1, 0]\nclass = vaginal"] ;
185 -> 187 ;
188 [label="Age_of_Mother <= 38.0\ngini = 0.153\nsamples = 10\nvalue = [1, 11]\nclass = c-section"] ;
184 -> 188 ;
189 [label="gini = 0.375\nsamples = 4\nvalue = [1, 3]\nclass = c-section"] ;
188 -> 189 ;
190 [label="gini = 0.0\nsamples = 6\nvalue = [0, 8]\nclass = c-section"] ;
188 -> 190 ;
191 [label="Weight_Gain <= 37.5\ngini = 0.498\nsamples = 13\nvalue = [9, 8]\nclass = vaginal"] ;
167 -> 191 ;
192 [label="Age_of_Mother <= 20.5\ngini = 0.298\nsamples = 10\nvalue = [9, 2]\nclass = vaginal"] ;
191 -> 192 ;
193 [label="Mothers_Height_in_Inches <= 61.5\ngini = 0.5\nsamples = 2\nvalue = [1, 1]\nclass = vaginal"] ;
192 -> 193 ;
194 [label="gini = 0.0\nsamples = 1\nvalue = [1, 0]\nclass = vaginal"] ;
193 -> 194 ;
195 [label="gini = 0.0\nsamples = 1\nvalue = [0, 1]\nclass = c-section"] ;
193 -> 195 ;
196 [label="Pre_Pregnancy_Weight <= 123.5\ngini = 0.198\nsamples = 8\nvalue = [8, 1]\nclass = vaginal"] ;
192 -> 196 ;
197 [label="gini = 0.0\nsamples = 3\nvalue = [4, 0]\nclass = vaginal"] ;
196 -> 197 ;
198 [label="Pre_Pregnancy_Weight <= 132.5\ngini = 0.32\nsamples = 5\nvalue = [4, 1]\nclass = vaginal"] ;
196 -> 198 ;
199 [label="gini = 0.0\nsamples = 1\nvalue = [0, 1]\nclass = c-section"] ;
198 -> 199 ;
200 [label="gini = 0.0\nsamples = 4\nvalue = [4, 0]\nclass = vaginal"] ;
198 -> 200 ;
201 [label="gini = 0.0\nsamples = 3\nvalue = [0, 6]\nclass = c-section"] ;
191 -> 201 ;
202 [label="gini = 0.0\nsamples = 1\nvalue = [2, 0]\nclass = vaginal"] ;
166 -> 202 ;
203 [label="Pre_Pregnancy_Weight <= 129.0\ngini = 0.46\nsamples = 23\nvalue = [14, 25]\nclass = c-section"] ;
165 -> 203 ;
204 [label="Pre_Pregnancy_Weight <= 108.0\ngini = 0.363\nsamples = 15\nvalue = [5, 16]\nclass = c-section"] ;
203 -> 204 ;
205 [label="Age_of_Mother <= 25.5\ngini = 0.49\nsamples = 5\nvalue = [3, 4]\nclass = c-section"] ;
204 -> 205 ;
206 [label="gini = 0.0\nsamples = 2\nvalue = [3, 0]\nclass = vaginal"] ;
205 -> 206 ;
207 [label="gini = 0.0\nsamples = 3\nvalue = [0, 4]\nclass = c-section"] ;
205 -> 207 ;
208 [label="Weight_Gain <= 28.0\ngini = 0.245\nsamples = 10\nvalue = [2, 12]\nclass = c-section"] ;
204 -> 208 ;
209 [label="Pre_Pregnancy_Weight <= 123.5\ngini = 0.444\nsamples = 4\nvalue = [2, 4]\nclass = c-section"] ;
208 -> 209 ;
210 [label="Pre_Pregnancy_Weight <= 121.0\ngini = 0.32\nsamples = 3\nvalue = [1, 4]\nclass = c-section"] ;
209 -> 210 ;
211 [label="Pre_Pregnancy_Weight <= 114.5\ngini = 0.5\nsamples = 2\nvalue = [1, 1]\nclass = vaginal"] ;
210 -> 211 ;
212 [label="gini = 0.0\nsamples = 1\nvalue = [0, 1]\nclass = c-section"] ;
211 -> 212 ;
213 [label="gini = 0.0\nsamples = 1\nvalue = [1, 0]\nclass = vaginal"] ;
211 -> 213 ;
214 [label="gini = 0.0\nsamples = 1\nvalue = [0, 3]\nclass = c-section"] ;
210 -> 214 ;
215 [label="gini = 0.0\nsamples = 1\nvalue = [1, 0]\nclass = vaginal"] ;
209 -> 215 ;
216 [label="gini = 0.0\nsamples = 6\nvalue = [0, 8]\nclass = c-section"] ;
208 -> 216 ;
217 [label="Prior_Terminations <= 0.5\ngini = 0.5\nsamples = 8\nvalue = [9, 9]\nclass = vaginal"] ;
203 -> 217 ;
218 [label="Pre_Pregnancy_Weight <= 140.5\ngini = 0.459\nsamples = 6\nvalue = [5, 9]\nclass = c-section"] ;
217 -> 218 ;
219 [label="Mothers_Height_in_Inches <= 61.5\ngini = 0.496\nsamples = 4\nvalue = [5, 6]\nclass = c-section"] ;
218 -> 219 ;
220 [label="gini = 0.0\nsamples = 1\nvalue = [0, 3]\nclass = c-section"] ;
219 -> 220 ;
221 [label="Age_of_Mother <= 24.0\ngini = 0.469\nsamples = 3\nvalue = [5, 3]\nclass = vaginal"] ;
219 -> 221 ;
222 [label="gini = 0.0\nsamples = 1\nvalue = [0, 3]\nclass = c-section"] ;
221 -> 222 ;
223 [label="gini = 0.0\nsamples = 2\nvalue = [5, 0]\nclass = vaginal"] ;
221 -> 223 ;
224 [label="gini = 0.0\nsamples = 2\nvalue = [0, 3]\nclass = c-section"] ;
218 -> 224 ;
225 [label="gini = 0.0\nsamples = 2\nvalue = [4, 0]\nclass = vaginal"] ;
217 -> 225 ;
226 [label="Marital_Status_  <= 0.5\ngini = 0.5\nsamples = 1467\nvalue = [1189, 1138]\nclass = vaginal"] ;
164 -> 226 ;
227 [label="Medical_Attendant <= 1.5\ngini = 0.5\nsamples = 1231\nvalue = [1009, 965]\nclass = vaginal"] ;
226 -> 227 ;
228 [label="Age_of_Mother <= 24.5\ngini = 0.5\nsamples = 1130\nvalue = [916, 894]\nclass = vaginal"] ;
227 -> 228 ;
229 [label="Pre_Pregnancy_Weight <= 99.5\ngini = 0.464\nsamples = 480\nvalue = [489, 282]\nclass = vaginal"] ;
228 -> 229 ;
230 [label="Pre_Pregnancy_Weight <= 90.5\ngini = 0.313\nsamples = 40\nvalue = [54, 13]\nclass = vaginal"] ;
229 -> 230 ;
231 [label="Age_of_Mother <= 22.5\ngini = 0.494\nsamples = 12\nvalue = [10, 8]\nclass = vaginal"] ;
230 -> 231 ;
232 [label="Age_of_Mother <= 20.5\ngini = 0.444\nsamples = 11\nvalue = [10, 5]\nclass = vaginal"] ;
231 -> 232 ;
233 [label="gini = 0.496\nsamples = 8\nvalue = [6, 5]\nclass = vaginal"] ;
232 -> 233 ;
234 [label="gini = 0.0\nsamples = 3\nvalue = [4, 0]\nclass = vaginal"] ;
232 -> 234 ;
235 [label="gini = 0.0\nsamples = 1\nvalue = [0, 3]\nclass = c-section"] ;
231 -> 235 ;
236 [label="Mothers_Height_in_Inches <= 58.5\ngini = 0.183\nsamples = 28\nvalue = [44, 5]\nclass = vaginal"] ;
230 -> 236 ;
237 [label="gini = 0.0\nsamples = 2\nvalue = [0, 2]\nclass = c-section"] ;
236 -> 237 ;
238 [label="Age_of_Mother <= 22.5\ngini = 0.12\nsamples = 26\nvalue = [44, 3]\nclass = vaginal"] ;
236 -> 238 ;
239 [label="gini = 0.049\nsamples = 20\nvalue = [39, 1]\nclass = vaginal"] ;
238 -> 239 ;
240 [label="gini = 0.408\nsamples = 6\nvalue = [5, 2]\nclass = vaginal"] ;
238 -> 240 ;
241 [label="Cigarette_Consumption <= 74.5\ngini = 0.472\nsamples = 440\nvalue = [435, 269]\nclass = vaginal"] ;
229 -> 241 ;
242 [label="Mothers_Height_in_Inches <= 60.5\ngini = 0.471\nsamples = 438\nvalue = [435, 267]\nclass = vaginal"] ;
241 -> 242 ;
243 [label="Age_of_Mother <= 20.5\ngini = 0.497\nsamples = 105\nvalue = [76, 88]\nclass = c-section"] ;
242 -> 243 ;
244 [label="gini = 0.464\nsamples = 58\nvalue = [33, 57]\nclass = c-section"] ;
243 -> 244 ;
245 [label="gini = 0.487\nsamples = 47\nvalue = [43, 31]\nclass = vaginal"] ;
243 -> 245 ;
246 [label="Age_of_Mother <= 22.5\ngini = 0.444\nsamples = 333\nvalue = [359, 179]\nclass = vaginal"] ;
242 -> 246 ;
247 [label="gini = 0.463\nsamples = 242\nvalue = [256, 146]\nclass = vaginal"] ;
246 -> 247 ;
248 [label="gini = 0.368\nsamples = 91\nvalue = [103, 33]\nclass = vaginal"] ;
246 -> 248 ;
249 [label="gini = 0.0\nsamples = 2\nvalue = [0, 2]\nclass = c-section"] ;
241 -> 249 ;
250 [label="Pre_Pregnancy_Weight <= 144.5\ngini = 0.484\nsamples = 650\nvalue = [427, 612]\nclass = c-section"] ;
228 -> 250 ;
251 [label="Age_of_Mother <= 40.5\ngini = 0.48\nsamples = 616\nvalue = [396, 591]\nclass = c-section"] ;
250 -> 251 ;
252 [label="Age_of_Mother <= 32.5\ngini = 0.482\nsamples = 610\nvalue = [396, 579]\nclass = c-section"] ;
251 -> 252 ;
253 [label="Age_of_Mother <= 31.5\ngini = 0.489\nsamples = 458\nvalue = [316, 427]\nclass = c-section"] ;
252 -> 253 ;
254 [label="gini = 0.483\nsamples = 406\nvalue = [269, 391]\nclass = c-section"] ;
253 -> 254 ;
255 [label="gini = 0.491\nsamples = 52\nvalue = [47, 36]\nclass = vaginal"] ;
253 -> 255 ;
256 [label="Mothers_Height_in_Inches <= 59.5\ngini = 0.452\nsamples = 152\nvalue = [80, 152]\nclass = c-section"] ;
252 -> 256 ;
257 [label="gini = 0.165\nsamples = 13\nvalue = [2, 20]\nclass = c-section"] ;
256 -> 257 ;
258 [label="gini = 0.467\nsamples = 139\nvalue = [78, 132]\nclass = c-section"] ;
256 -> 258 ;
259 [label="gini = 0.0\nsamples = 6\nvalue = [0, 12]\nclass = c-section"] ;
251 -> 259 ;
260 [label="Age_of_Mother <= 26.5\ngini = 0.482\nsamples = 34\nvalue = [31, 21]\nclass = vaginal"] ;
250 -> 260 ;
261 [label="Weight_Gain <= 45.0\ngini = 0.298\nsamples = 7\nvalue = [9, 2]\nclass = vaginal"] ;
260 -> 261 ;
262 [label="gini = 0.0\nsamples = 6\nvalue = [9, 0]\nclass = vaginal"] ;
261 -> 262 ;
263 [label="gini = 0.0\nsamples = 1\nvalue = [0, 2]\nclass = c-section"] ;
261 -> 263 ;
264 [label="Prior_Terminations <= 1.0\ngini = 0.497\nsamples = 27\nvalue = [22, 19]\nclass = vaginal"] ;
260 -> 264 ;
265 [label="Pre_Pregnancy_Weight <= 147.5\ngini = 0.5\nsamples = 24\nvalue = [18, 18]\nclass = vaginal"] ;
264 -> 265 ;
266 [label="gini = 0.491\nsamples = 20\nvalue = [17, 13]\nclass = vaginal"] ;
265 -> 266 ;
267 [label="gini = 0.278\nsamples = 4\nvalue = [1, 5]\nclass = c-section"] ;
265 -> 267 ;
268 [label="Age_of_Mother <= 36.5\ngini = 0.32\nsamples = 3\nvalue = [4, 1]\nclass = vaginal"] ;
264 -> 268 ;
269 [label="gini = 0.0\nsamples = 2\nvalue = [4, 0]\nclass = vaginal"] ;
268 -> 269 ;
270 [label="gini = 0.0\nsamples = 1\nvalue = [0, 1]\nclass = c-section"] ;
268 -> 270 ;
271 [label="Cigarette_Consumption <= 14.0\ngini = 0.491\nsamples = 101\nvalue = [93, 71]\nclass = vaginal"] ;
227 -> 271 ;
272 [label="Weight_Gain <= 29.5\ngini = 0.479\nsamples = 95\nvalue = [92, 61]\nclass = vaginal"] ;
271 -> 272 ;
273 [label="Weight_Gain <= 10.5\ngini = 0.392\nsamples = 46\nvalue = [52, 19]\nclass = vaginal"] ;
272 -> 273 ;
274 [label="Prior_Terminations <= 1.5\ngini = 0.48\nsamples = 7\nvalue = [4, 6]\nclass = c-section"] ;
273 -> 274 ;
275 [label="Mothers_Height_in_Inches <= 61.5\ngini = 0.444\nsamples = 6\nvalue = [3, 6]\nclass = c-section"] ;
274 -> 275 ;
276 [label="gini = 0.0\nsamples = 3\nvalue = [0, 5]\nclass = c-section"] ;
275 -> 276 ;
277 [label="gini = 0.375\nsamples = 3\nvalue = [3, 1]\nclass = vaginal"] ;
275 -> 277 ;
278 [label="gini = 0.0\nsamples = 1\nvalue = [1, 0]\nclass = vaginal"] ;
274 -> 278 ;
279 [label="Cigarette_Consumption <= 3.5\ngini = 0.335\nsamples = 39\nvalue = [48, 13]\nclass = vaginal"] ;
273 -> 279 ;
280 [label="Prior_Terminations <= 0.5\ngini = 0.316\nsamples = 35\nvalue = [45, 11]\nclass = vaginal"] ;
279 -> 280 ;
281 [label="gini = 0.219\nsamples = 30\nvalue = [42, 6]\nclass = vaginal"] ;
280 -> 281 ;
282 [label="gini = 0.469\nsamples = 5\nvalue = [3, 5]\nclass = c-section"] ;
280 -> 282 ;
283 [label="Age_of_Mother <= 20.5\ngini = 0.48\nsamples = 4\nvalue = [3, 2]\nclass = vaginal"] ;
279 -> 283 ;
284 [label="gini = 0.0\nsamples = 1\nvalue = [0, 1]\nclass = c-section"] ;
283 -> 284 ;
285 [label="gini = 0.375\nsamples = 3\nvalue = [3, 1]\nclass = vaginal"] ;
283 -> 285 ;
286 [label="Pre_Pregnancy_Weight <= 133.5\ngini = 0.5\nsamples = 49\nvalue = [40, 42]\nclass = c-section"] ;
272 -> 286 ;
287 [label="Prior_Terminations <= 0.5\ngini = 0.489\nsamples = 37\nvalue = [35, 26]\nclass = vaginal"] ;
286 -> 287 ;
288 [label="Age_of_Mother <= 21.5\ngini = 0.497\nsamples = 31\nvalue = [29, 25]\nclass = vaginal"] ;
287 -> 288 ;
289 [label="gini = 0.219\nsamples = 7\nvalue = [7, 1]\nclass = vaginal"] ;
288 -> 289 ;
290 [label="gini = 0.499\nsamples = 24\nvalue = [22, 24]\nclass = c-section"] ;
288 -> 290 ;
291 [label="Prior_Terminations <= 1.5\ngini = 0.245\nsamples = 6\nvalue = [6, 1]\nclass = vaginal"] ;
287 -> 291 ;
292 [label="gini = 0.278\nsamples = 5\nvalue = [5, 1]\nclass = vaginal"] ;
291 -> 292 ;
293 [label="gini = 0.0\nsamples = 1\nvalue = [1, 0]\nclass = vaginal"] ;
291 -> 293 ;
294 [label="Weight_Gain <= 34.5\ngini = 0.363\nsamples = 12\nvalue = [5, 16]\nclass = c-section"] ;
286 -> 294 ;
295 [label="gini = 0.0\nsamples = 4\nvalue = [0, 7]\nclass = c-section"] ;
294 -> 295 ;
296 [label="Weight_Gain <= 42.0\ngini = 0.459\nsamples = 8\nvalue = [5, 9]\nclass = c-section"] ;
294 -> 296 ;
297 [label="gini = 0.0\nsamples = 2\nvalue = [4, 0]\nclass = vaginal"] ;
296 -> 297 ;
298 [label="gini = 0.18\nsamples = 6\nvalue = [1, 9]\nclass = c-section"] ;
296 -> 298 ;
299 [label="Pre_Pregnancy_Weight <= 94.0\ngini = 0.165\nsamples = 6\nvalue = [1, 10]\nclass = c-section"] ;
271 -> 299 ;
300 [label="gini = 0.0\nsamples = 1\nvalue = [1, 0]\nclass = vaginal"] ;
299 -> 300 ;
301 [label="gini = 0.0\nsamples = 5\nvalue = [0, 10]\nclass = c-section"] ;
299 -> 301 ;
302 [label="Cigarette_Consumption <= 2.5\ngini = 0.5\nsamples = 236\nvalue = [180, 173]\nclass = vaginal"] ;
226 -> 302 ;
303 [label="Age_of_Mother <= 22.5\ngini = 0.5\nsamples = 233\nvalue = [179, 170]\nclass = vaginal"] ;
302 -> 303 ;
304 [label="Pre_Pregnancy_Weight <= 139.5\ngini = 0.418\nsamples = 55\nvalue = [59, 25]\nclass = vaginal"] ;
303 -> 304 ;
305 [label="Medical_Attendant <= 1.5\ngini = 0.444\nsamples = 49\nvalue = [50, 25]\nclass = vaginal"] ;
304 -> 305 ;
306 [label="Weight_Gain <= 41.0\ngini = 0.431\nsamples = 46\nvalue = [48, 22]\nclass = vaginal"] ;
305 -> 306 ;
307 [label="Weight_Gain <= 37.5\ngini = 0.464\nsamples = 41\nvalue = [38, 22]\nclass = vaginal"] ;
306 -> 307 ;
308 [label="gini = 0.44\nsamples = 38\nvalue = [37, 18]\nclass = vaginal"] ;
307 -> 308 ;
309 [label="gini = 0.32\nsamples = 3\nvalue = [1, 4]\nclass = c-section"] ;
307 -> 309 ;
310 [label="gini = 0.0\nsamples = 5\nvalue = [10, 0]\nclass = vaginal"] ;
306 -> 310 ;
311 [label="Pre_Pregnancy_Weight <= 106.0\ngini = 0.48\nsamples = 3\nvalue = [2, 3]\nclass = c-section"] ;
305 -> 311 ;
312 [label="gini = 0.0\nsamples = 1\nvalue = [0, 3]\nclass = c-section"] ;
311 -> 312 ;
313 [label="gini = 0.0\nsamples = 2\nvalue = [2, 0]\nclass = vaginal"] ;
311 -> 313 ;
314 [label="gini = 0.0\nsamples = 6\nvalue = [9, 0]\nclass = vaginal"] ;
304 -> 314 ;
315 [label="Medical_Attendant <= 1.5\ngini = 0.496\nsamples = 178\nvalue = [120, 145]\nclass = c-section"] ;
303 -> 315 ;
316 [label="Weight_Gain <= 34.5\ngini = 0.495\nsamples = 173\nvalue = [117, 142]\nclass = c-section"] ;
315 -> 316 ;
317 [label="Weight_Gain <= 12.0\ngini = 0.498\nsamples = 112\nvalue = [84, 75]\nclass = vaginal"] ;
316 -> 317 ;
318 [label="Age_of_Mother <= 36.0\ngini = 0.165\nsamples = 7\nvalue = [10, 1]\nclass = vaginal"] ;
317 -> 318 ;
319 [label="gini = 0.0\nsamples = 5\nvalue = [9, 0]\nclass = vaginal"] ;
318 -> 319 ;
320 [label="gini = 0.5\nsamples = 2\nvalue = [1, 1]\nclass = vaginal"] ;
318 -> 320 ;
321 [label="Weight_Gain <= 31.5\ngini = 0.5\nsamples = 105\nvalue = [74, 74]\nclass = vaginal"] ;
317 -> 321 ;
322 [label="gini = 0.498\nsamples = 92\nvalue = [62, 70]\nclass = c-section"] ;
321 -> 322 ;
323 [label="gini = 0.375\nsamples = 13\nvalue = [12, 4]\nclass = vaginal"] ;
321 -> 323 ;
324 [label="Prior_Terminations <= 0.5\ngini = 0.442\nsamples = 61\nvalue = [33, 67]\nclass = c-section"] ;
316 -> 324 ;
325 [label="Weight_Gain <= 47.5\ngini = 0.449\nsamples = 59\nvalue = [33, 64]\nclass = c-section"] ;
324 -> 325 ;
326 [label="gini = 0.405\nsamples = 43\nvalue = [20, 51]\nclass = c-section"] ;
325 -> 326 ;
327 [label="gini = 0.5\nsamples = 16\nvalue = [13, 13]\nclass = vaginal"] ;
325 -> 327 ;
328 [label="gini = 0.0\nsamples = 2\nvalue = [0, 3]\nclass = c-section"] ;
324 -> 328 ;
329 [label="Pre_Pregnancy_Weight <= 139.0\ngini = 0.5\nsamples = 5\nvalue = [3, 3]\nclass = vaginal"] ;
315 -> 329 ;
330 [label="gini = 0.0\nsamples = 3\nvalue = [0, 3]\nclass = c-section"] ;
329 -> 330 ;
331 [label="gini = 0.0\nsamples = 2\nvalue = [3, 0]\nclass = vaginal"] ;
329 -> 331 ;
332 [label="Weight_Gain <= 33.5\ngini = 0.375\nsamples = 3\nvalue = [1, 3]\nclass = c-section"] ;
302 -> 332 ;
333 [label="gini = 0.0\nsamples = 1\nvalue = [1, 0]\nclass = vaginal"] ;
332 -> 333 ;
334 [label="gini = 0.0\nsamples = 2\nvalue = [0, 3]\nclass = c-section"] ;
332 -> 334 ;
335 [label="Prior_Terminations <= 1.5\ngini = 0.406\nsamples = 131\nvalue = [58, 147]\nclass = c-section"] ;
43 -> 335 ;
336 [label="Mothers_Height_in_Inches <= 60.5\ngini = 0.411\nsamples = 127\nvalue = [57, 140]\nclass = c-section"] ;
335 -> 336 ;
337 [label="Pre_Pregnancy_Weight <= 110.5\ngini = 0.361\nsamples = 96\nvalue = [35, 113]\nclass = c-section"] ;
336 -> 337 ;
338 [label="Mothers_Height_in_Inches <= 51.5\ngini = 0.375\nsamples = 2\nvalue = [3, 1]\nclass = vaginal"] ;
337 -> 338 ;
339 [label="gini = 0.0\nsamples = 1\nvalue = [0, 1]\nclass = c-section"] ;
338 -> 339 ;
340 [label="gini = 0.0\nsamples = 1\nvalue = [3, 0]\nclass = vaginal"] ;
338 -> 340 ;
341 [label="Mothers_Height_in_Inches <= 58.5\ngini = 0.346\nsamples = 94\nvalue = [32, 112]\nclass = c-section"] ;
337 -> 341 ;
342 [label="Pre_Pregnancy_Weight <= 133.5\ngini = 0.422\nsamples = 29\nvalue = [13, 30]\nclass = c-section"] ;
341 -> 342 ;
343 [label="Age_of_Mother <= 22.5\ngini = 0.105\nsamples = 13\nvalue = [1, 17]\nclass = c-section"] ;
342 -> 343 ;
344 [label="BMI <= 27.85\ngini = 0.444\nsamples = 2\nvalue = [1, 2]\nclass = c-section"] ;
343 -> 344 ;
345 [label="gini = 0.0\nsamples = 1\nvalue = [1, 0]\nclass = vaginal"] ;
344 -> 345 ;
346 [label="gini = 0.0\nsamples = 1\nvalue = [0, 2]\nclass = c-section"] ;
344 -> 346 ;
347 [label="gini = 0.0\nsamples = 11\nvalue = [0, 15]\nclass = c-section"] ;
343 -> 347 ;
348 [label="Medical_Attendant <= 1.5\ngini = 0.499\nsamples = 16\nvalue = [12, 13]\nclass = c-section"] ;
342 -> 348 ;
349 [label="Age_of_Mother <= 30.0\ngini = 0.496\nsamples = 15\nvalue = [12, 10]\nclass = vaginal"] ;
348 -> 349 ;
350 [label="Pre_Pregnancy_Weight <= 144.0\ngini = 0.444\nsamples = 10\nvalue = [10, 5]\nclass = vaginal"] ;
349 -> 350 ;
351 [label="Mothers_Height_in_Inches <= 57.5\ngini = 0.198\nsamples = 5\nvalue = [8, 1]\nclass = vaginal"] ;
350 -> 351 ;
352 [label="gini = 0.0\nsamples = 2\nvalue = [3, 0]\nclass = vaginal"] ;
351 -> 352 ;
353 [label="gini = 0.278\nsamples = 3\nvalue = [5, 1]\nclass = vaginal"] ;
351 -> 353 ;
354 [label="Age_of_Mother <= 17.5\ngini = 0.444\nsamples = 5\nvalue = [2, 4]\nclass = c-section"] ;
350 -> 354 ;
355 [label="gini = 0.0\nsamples = 1\nvalue = [1, 0]\nclass = vaginal"] ;
354 -> 355 ;
356 [label="gini = 0.32\nsamples = 4\nvalue = [1, 4]\nclass = c-section"] ;
354 -> 356 ;
357 [label="Prior_Terminations <= 0.5\ngini = 0.408\nsamples = 5\nvalue = [2, 5]\nclass = c-section"] ;
349 -> 357 ;
358 [label="gini = 0.0\nsamples = 4\nvalue = [0, 5]\nclass = c-section"] ;
357 -> 358 ;
359 [label="gini = 0.0\nsamples = 1\nvalue = [2, 0]\nclass = vaginal"] ;
357 -> 359 ;
360 [label="gini = 0.0\nsamples = 1\nvalue = [0, 3]\nclass = c-section"] ;
348 -> 360 ;
361 [label="Induction_of_labor_Y <= 0.5\ngini = 0.305\nsamples = 65\nvalue = [19, 82]\nclass = c-section"] ;
341 -> 361 ;
362 [label="BMI <= 28.9\ngini = 0.267\nsamples = 39\nvalue = [10, 53]\nclass = c-section"] ;
361 -> 362 ;
363 [label="Pre_Pregnancy_Weight <= 141.5\ngini = 0.32\nsamples = 30\nvalue = [10, 40]\nclass = c-section"] ;
362 -> 363 ;
364 [label="BMI <= 28.4\ngini = 0.1\nsamples = 9\nvalue = [1, 18]\nclass = c-section"] ;
363 -> 364 ;
365 [label="gini = 0.0\nsamples = 8\nvalue = [0, 18]\nclass = c-section"] ;
364 -> 365 ;
366 [label="gini = 0.0\nsamples = 1\nvalue = [1, 0]\nclass = vaginal"] ;
364 -> 366 ;
367 [label="NO_RISK <= 0.5\ngini = 0.412\nsamples = 21\nvalue = [9, 22]\nclass = c-section"] ;
363 -> 367 ;
368 [label="Marital_Status_  <= 0.5\ngini = 0.48\nsamples = 4\nvalue = [3, 2]\nclass = vaginal"] ;
367 -> 368 ;
369 [label="gini = 0.444\nsamples = 3\nvalue = [1, 2]\nclass = c-section"] ;
368 -> 369 ;
370 [label="gini = 0.0\nsamples = 1\nvalue = [2, 0]\nclass = vaginal"] ;
368 -> 370 ;
371 [label="Age_of_Mother <= 25.0\ngini = 0.355\nsamples = 17\nvalue = [6, 20]\nclass = c-section"] ;
367 -> 371 ;
372 [label="gini = 0.5\nsamples = 8\nvalue = [5, 5]\nclass = vaginal"] ;
371 -> 372 ;
373 [label="gini = 0.117\nsamples = 9\nvalue = [1, 15]\nclass = c-section"] ;
371 -> 373 ;
374 [label="gini = 0.0\nsamples = 9\nvalue = [0, 13]\nclass = c-section"] ;
362 -> 374 ;
375 [label="Marital_Status_  <= 0.5\ngini = 0.361\nsamples = 26\nvalue = [9, 29]\nclass = c-section"] ;
361 -> 375 ;
376 [label="Weight_Gain <= 17.0\ngini = 0.382\nsamples = 24\nvalue = [9, 26]\nclass = c-section"] ;
375 -> 376 ;
377 [label="gini = 0.0\nsamples = 2\nvalue = [3, 0]\nclass = vaginal"] ;
376 -> 377 ;
378 [label="Pre_Pregnancy_Weight <= 147.5\ngini = 0.305\nsamples = 22\nvalue = [6, 26]\nclass = c-section"] ;
376 -> 378 ;
379 [label="Prior_Terminations <= 0.5\ngini = 0.198\nsamples = 17\nvalue = [3, 24]\nclass = c-section"] ;
378 -> 379 ;
380 [label="gini = 0.159\nsamples = 14\nvalue = [2, 21]\nclass = c-section"] ;
379 -> 380 ;
381 [label="gini = 0.375\nsamples = 3\nvalue = [1, 3]\nclass = c-section"] ;
379 -> 381 ;
382 [label="Cigarette_Consumption <= 3.0\ngini = 0.48\nsamples = 5\nvalue = [3, 2]\nclass = vaginal"] ;
378 -> 382 ;
383 [label="gini = 0.375\nsamples = 4\nvalue = [3, 1]\nclass = vaginal"] ;
382 -> 383 ;
384 [label="gini = 0.0\nsamples = 1\nvalue = [0, 1]\nclass = c-section"] ;
382 -> 384 ;
385 [label="gini = 0.0\nsamples = 2\nvalue = [0, 3]\nclass = c-section"] ;
375 -> 385 ;
386 [label="Pre_Pregnancy_Weight <= 146.5\ngini = 0.495\nsamples = 31\nvalue = [22, 27]\nclass = c-section"] ;
336 -> 386 ;
387 [label="Weight_Gain <= 34.5\ngini = 0.278\nsamples = 4\nvalue = [1, 5]\nclass = c-section"] ;
386 -> 387 ;
388 [label="Age_of_Mother <= 21.5\ngini = 0.444\nsamples = 3\nvalue = [1, 2]\nclass = c-section"] ;
387 -> 388 ;
389 [label="gini = 0.0\nsamples = 1\nvalue = [1, 0]\nclass = vaginal"] ;
388 -> 389 ;
390 [label="gini = 0.0\nsamples = 2\nvalue = [0, 2]\nclass = c-section"] ;
388 -> 390 ;
391 [label="gini = 0.0\nsamples = 1\nvalue = [0, 3]\nclass = c-section"] ;
387 -> 391 ;
392 [label="Age_of_Mother <= 22.0\ngini = 0.5\nsamples = 27\nvalue = [21, 22]\nclass = c-section"] ;
386 -> 392 ;
393 [label="Pre_Pregnancy_Weight <= 147.5\ngini = 0.298\nsamples = 6\nvalue = [9, 2]\nclass = vaginal"] ;
392 -> 393 ;
394 [label="Induction_of_labor_N <= 0.5\ngini = 0.5\nsamples = 3\nvalue = [2, 2]\nclass = vaginal"] ;
393 -> 394 ;
395 [label="gini = 0.0\nsamples = 1\nvalue = [2, 0]\nclass = vaginal"] ;
394 -> 395 ;
396 [label="gini = 0.0\nsamples = 2\nvalue = [0, 2]\nclass = c-section"] ;
394 -> 396 ;
397 [label="gini = 0.0\nsamples = 3\nvalue = [7, 0]\nclass = vaginal"] ;
393 -> 397 ;
398 [label="Weight_Gain <= 15.5\ngini = 0.469\nsamples = 21\nvalue = [12, 20]\nclass = c-section"] ;
392 -> 398 ;
399 [label="gini = 0.0\nsamples = 2\nvalue = [5, 0]\nclass = vaginal"] ;
398 -> 399 ;
400 [label="Weight_Gain <= 44.0\ngini = 0.384\nsamples = 19\nvalue = [7, 20]\nclass = c-section"] ;
398 -> 400 ;
401 [label="BMI <= 28.1\ngini = 0.355\nsamples = 18\nvalue = [6, 20]\nclass = c-section"] ;
400 -> 401 ;
402 [label="Induction_of_labor_Y <= 0.5\ngini = 0.457\nsamples = 13\nvalue = [6, 11]\nclass = c-section"] ;
401 -> 402 ;
403 [label="Prior_Terminations <= 0.5\ngini = 0.49\nsamples = 12\nvalue = [6, 8]\nclass = c-section"] ;
402 -> 403 ;
404 [label="gini = 0.497\nsamples = 11\nvalue = [6, 7]\nclass = c-section"] ;
403 -> 404 ;
405 [label="gini = 0.0\nsamples = 1\nvalue = [0, 1]\nclass = c-section"] ;
403 -> 405 ;
406 [label="gini = 0.0\nsamples = 1\nvalue = [0, 3]\nclass = c-section"] ;
402 -> 406 ;
407 [label="gini = 0.0\nsamples = 5\nvalue = [0, 9]\nclass = c-section"] ;
401 -> 407 ;
408 [label="gini = 0.0\nsamples = 1\nvalue = [1, 0]\nclass = vaginal"] ;
400 -> 408 ;
409 [label="Pre_Pregnancy_Weight <= 146.5\ngini = 0.219\nsamples = 4\nvalue = [1, 7]\nclass = c-section"] ;
335 -> 409 ;
410 [label="gini = 0.0\nsamples = 3\nvalue = [0, 7]\nclass = c-section"] ;
409 -> 410 ;
411 [label="gini = 0.0\nsamples = 1\nvalue = [1, 0]\nclass = vaginal"] ;
409 -> 411 ;
412 [label="Age_of_Mother <= 42.0\ngini = 0.052\nsamples = 231\nvalue = [364, 10]\nclass = vaginal"] ;
42 -> 412 ;
413 [label="Cigarette_Consumption <= 11.0\ngini = 0.042\nsamples = 229\nvalue = [363, 8]\nclass = vaginal"] ;
412 -> 413 ;
414 [label="BMI <= 17.6\ngini = 0.027\nsamples = 223\nvalue = [356, 5]\nclass = vaginal"] ;
413 -> 414 ;
415 [label="Age_of_Mother <= 26.0\ngini = 0.18\nsamples = 6\nvalue = [9, 1]\nclass = vaginal"] ;
414 -> 415 ;
416 [label="gini = 0.0\nsamples = 5\nvalue = [9, 0]\nclass = vaginal"] ;
415 -> 416 ;
417 [label="gini = 0.0\nsamples = 1\nvalue = [0, 1]\nclass = c-section"] ;
415 -> 417 ;
418 [label="Weight_Gain <= 58.5\ngini = 0.023\nsamples = 217\nvalue = [347, 4]\nclass = vaginal"] ;
414 -> 418 ;
419 [label="Mothers_Height_in_Inches <= 58.5\ngini = 0.012\nsamples = 207\nvalue = [331, 2]\nclass = vaginal"] ;
418 -> 419 ;
420 [label="BMI <= 21.95\ngini = 0.444\nsamples = 5\nvalue = [4, 2]\nclass = vaginal"] ;
419 -> 420 ;
421 [label="gini = 0.0\nsamples = 1\nvalue = [0, 2]\nclass = c-section"] ;
420 -> 421 ;
422 [label="gini = 0.0\nsamples = 4\nvalue = [4, 0]\nclass = vaginal"] ;
420 -> 422 ;
423 [label="gini = 0.0\nsamples = 202\nvalue = [327, 0]\nclass = vaginal"] ;
419 -> 423 ;
424 [label="Age_of_Mother <= 31.5\ngini = 0.198\nsamples = 10\nvalue = [16, 2]\nclass = vaginal"] ;
418 -> 424 ;
425 [label="gini = 0.0\nsamples = 9\nvalue = [16, 0]\nclass = vaginal"] ;
424 -> 425 ;
426 [label="gini = 0.0\nsamples = 1\nvalue = [0, 2]\nclass = c-section"] ;
424 -> 426 ;
427 [label="Induction_of_labor_N <= 0.5\ngini = 0.42\nsamples = 6\nvalue = [7, 3]\nclass = vaginal"] ;
413 -> 427 ;
428 [label="Mothers_Height_in_Inches <= 61.5\ngini = 0.48\nsamples = 2\nvalue = [2, 3]\nclass = c-section"] ;
427 -> 428 ;
429 [label="gini = 0.0\nsamples = 1\nvalue = [0, 3]\nclass = c-section"] ;
428 -> 429 ;
430 [label="gini = 0.0\nsamples = 1\nvalue = [2, 0]\nclass = vaginal"] ;
428 -> 430 ;
431 [label="gini = 0.0\nsamples = 4\nvalue = [5, 0]\nclass = vaginal"] ;
427 -> 431 ;
432 [label="Prior_Terminations <= 1.0\ngini = 0.444\nsamples = 2\nvalue = [1, 2]\nclass = c-section"] ;
412 -> 432 ;
433 [label="gini = 0.0\nsamples = 1\nvalue = [1, 0]\nclass = vaginal"] ;
432 -> 433 ;
434 [label="gini = 0.0\nsamples = 1\nvalue = [0, 2]\nclass = c-section"] ;
432 -> 434 ;
435 [label="Cigarette_Consumption <= 11.0\ngini = 0.478\nsamples = 1691\nvalue = [1034, 1590]\nclass = c-section"] ;
3 -> 435 ;
436 [label="NO_RISK <= 0.5\ngini = 0.476\nsamples = 1636\nvalue = [989, 1545]\nclass = c-section"] ;
435 -> 436 ;
437 [label="Age_of_Mother <= 31.5\ngini = 0.407\nsamples = 453\nvalue = [198, 499]\nclass = c-section"] ;
436 -> 437 ;
438 [label="Medical_Attendant <= 2.5\ngini = 0.461\nsamples = 304\nvalue = [163, 290]\nclass = c-section"] ;
437 -> 438 ;
439 [label="BMI <= 30.55\ngini = 0.44\nsamples = 290\nvalue = [141, 290]\nclass = c-section"] ;
438 -> 439 ;
440 [label="BMI <= 30.45\ngini = 0.491\nsamples = 75\nvalue = [49, 64]\nclass = c-section"] ;
439 -> 440 ;
441 [label="Marital_Status_  <= 0.5\ngini = 0.483\nsamples = 72\nvalue = [44, 64]\nclass = c-section"] ;
440 -> 441 ;
442 [label="Prior_Terminations <= 2.0\ngini = 0.46\nsamples = 63\nvalue = [34, 61]\nclass = c-section"] ;
441 -> 442 ;
443 [label="Prior_Births_Dead <= 3.0\ngini = 0.464\nsamples = 62\nvalue = [34, 59]\nclass = c-section"] ;
442 -> 443 ;
444 [label="Weight_Gain <= 26.5\ngini = 0.46\nsamples = 61\nvalue = [33, 59]\nclass = c-section"] ;
443 -> 444 ;
445 [label="Pre_Pregnancy_Weight <= 164.5\ngini = 0.473\nsamples = 24\nvalue = [24, 15]\nclass = vaginal"] ;
444 -> 445 ;
446 [label="Induction_of_labor_N <= 0.5\ngini = 0.444\nsamples = 22\nvalue = [24, 12]\nclass = vaginal"] ;
445 -> 446 ;
447 [label="gini = 0.497\nsamples = 9\nvalue = [6, 7]\nclass = c-section"] ;
446 -> 447 ;
448 [label="gini = 0.34\nsamples = 13\nvalue = [18, 5]\nclass = vaginal"] ;
446 -> 448 ;
449 [label="gini = 0.0\nsamples = 2\nvalue = [0, 3]\nclass = c-section"] ;
445 -> 449 ;
450 [label="BMI <= 28.05\ngini = 0.282\nsamples = 37\nvalue = [9, 44]\nclass = c-section"] ;
444 -> 450 ;
451 [label="gini = 0.0\nsamples = 9\nvalue = [0, 12]\nclass = c-section"] ;
450 -> 451 ;
452 [label="Induction_of_labor_Y <= 0.5\ngini = 0.343\nsamples = 28\nvalue = [9, 32]\nclass = c-section"] ;
450 -> 452 ;
453 [label="gini = 0.0\nsamples = 15\nvalue = [0, 22]\nclass = c-section"] ;
452 -> 453 ;
454 [label="gini = 0.499\nsamples = 13\nvalue = [9, 10]\nclass = c-section"] ;
452 -> 454 ;
455 [label="gini = 0.0\nsamples = 1\nvalue = [1, 0]\nclass = vaginal"] ;
443 -> 455 ;
456 [label="gini = 0.0\nsamples = 1\nvalue = [0, 2]\nclass = c-section"] ;
442 -> 456 ;
457 [label="Weight_Gain <= 20.5\ngini = 0.355\nsamples = 9\nvalue = [10, 3]\nclass = vaginal"] ;
441 -> 457 ;
458 [label="gini = 0.0\nsamples = 1\nvalue = [0, 1]\nclass = c-section"] ;
457 -> 458 ;
459 [label="Weight_Gain <= 42.5\ngini = 0.278\nsamples = 8\nvalue = [10, 2]\nclass = vaginal"] ;
457 -> 459 ;
460 [label="gini = 0.0\nsamples = 4\nvalue = [6, 0]\nclass = vaginal"] ;
459 -> 460 ;
461 [label="Weight_Gain <= 60.0\ngini = 0.444\nsamples = 4\nvalue = [4, 2]\nclass = vaginal"] ;
459 -> 461 ;
462 [label="gini = 0.0\nsamples = 2\nvalue = [0, 2]\nclass = c-section"] ;
461 -> 462 ;
463 [label="gini = 0.0\nsamples = 2\nvalue = [4, 0]\nclass = vaginal"] ;
461 -> 463 ;
464 [label="gini = 0.0\nsamples = 3\nvalue = [5, 0]\nclass = vaginal"] ;
440 -> 464 ;
465 [label="Pre_Pregnancy_Weight <= 209.5\ngini = 0.411\nsamples = 215\nvalue = [92, 226]\nclass = c-section"] ;
439 -> 465 ;
466 [label="Induction_of_labor_Y <= 0.5\ngini = 0.451\nsamples = 132\nvalue = [68, 130]\nclass = c-section"] ;
465 -> 466 ;
467 [label="Medical_Attendant <= 1.5\ngini = 0.35\nsamples = 58\nvalue = [19, 65]\nclass = c-section"] ;
466 -> 467 ;
468 [label="Marital_Status_  <= 0.5\ngini = 0.368\nsamples = 52\nvalue = [18, 56]\nclass = c-section"] ;
467 -> 468 ;
469 [label="Pre_Pregnancy_Weight <= 179.5\ngini = 0.363\nsamples = 47\nvalue = [15, 48]\nclass = c-section"] ;
468 -> 469 ;
470 [label="Weight_Gain <= 6.0\ngini = 0.133\nsamples = 19\nvalue = [2, 26]\nclass = c-section"] ;
469 -> 470 ;
471 [label="gini = 0.0\nsamples = 2\nvalue = [2, 0]\nclass = vaginal"] ;
470 -> 471 ;
472 [label="gini = 0.0\nsamples = 17\nvalue = [0, 26]\nclass = c-section"] ;
470 -> 472 ;
473 [label="BMI <= 32.85\ngini = 0.467\nsamples = 28\nvalue = [13, 22]\nclass = c-section"] ;
469 -> 473 ;
474 [label="gini = 0.0\nsamples = 4\nvalue = [0, 7]\nclass = c-section"] ;
473 -> 474 ;
475 [label="Pre_Pregnancy_Weight <= 189.5\ngini = 0.497\nsamples = 24\nvalue = [13, 15]\nclass = c-section"] ;
473 -> 475 ;
476 [label="gini = 0.444\nsamples = 10\nvalue = [8, 4]\nclass = vaginal"] ;
475 -> 476 ;
477 [label="gini = 0.43\nsamples = 14\nvalue = [5, 11]\nclass = c-section"] ;
475 -> 477 ;
478 [label="Weight_Gain <= 23.0\ngini = 0.397\nsamples = 5\nvalue = [3, 8]\nclass = c-section"] ;
468 -> 478 ;
479 [label="gini = 0.0\nsamples = 2\nvalue = [0, 5]\nclass = c-section"] ;
478 -> 479 ;
480 [label="Age_of_Mother <= 29.5\ngini = 0.5\nsamples = 3\nvalue = [3, 3]\nclass = vaginal"] ;
478 -> 480 ;
481 [label="BMI <= 34.55\ngini = 0.375\nsamples = 2\nvalue = [1, 3]\nclass = c-section"] ;
480 -> 481 ;
482 [label="gini = 0.0\nsamples = 1\nvalue = [0, 3]\nclass = c-section"] ;
481 -> 482 ;
483 [label="gini = 0.0\nsamples = 1\nvalue = [1, 0]\nclass = vaginal"] ;
481 -> 483 ;
484 [label="gini = 0.0\nsamples = 1\nvalue = [2, 0]\nclass = vaginal"] ;
480 -> 484 ;
485 [label="BMI <= 32.5\ngini = 0.18\nsamples = 6\nvalue = [1, 9]\nclass = c-section"] ;
467 -> 485 ;
486 [label="Pre_Pregnancy_Weight <= 176.0\ngini = 0.5\nsamples = 2\nvalue = [1, 1]\nclass = vaginal"] ;
485 -> 486 ;
487 [label="gini = 0.0\nsamples = 1\nvalue = [0, 1]\nclass = c-section"] ;
486 -> 487 ;
488 [label="gini = 0.0\nsamples = 1\nvalue = [1, 0]\nclass = vaginal"] ;
486 -> 488 ;
489 [label="gini = 0.0\nsamples = 4\nvalue = [0, 8]\nclass = c-section"] ;
485 -> 489 ;
490 [label="Age_of_Mother <= 30.5\ngini = 0.49\nsamples = 74\nvalue = [49, 65]\nclass = c-section"] ;
466 -> 490 ;
491 [label="Weight_Gain <= 13.0\ngini = 0.475\nsamples = 66\nvalue = [40, 63]\nclass = c-section"] ;
490 -> 491 ;
492 [label="Marital_Status_  <= 0.5\ngini = 0.346\nsamples = 11\nvalue = [14, 4]\nclass = vaginal"] ;
491 -> 492 ;
493 [label="Pre_Pregnancy_Weight <= 172.5\ngini = 0.36\nsamples = 10\nvalue = [13, 4]\nclass = vaginal"] ;
492 -> 493 ;
494 [label="gini = 0.0\nsamples = 3\nvalue = [5, 0]\nclass = vaginal"] ;
493 -> 494 ;
495 [label="BMI <= 33.8\ngini = 0.444\nsamples = 7\nvalue = [8, 4]\nclass = vaginal"] ;
493 -> 495 ;
496 [label="gini = 0.444\nsamples = 3\nvalue = [2, 4]\nclass = c-section"] ;
495 -> 496 ;
497 [label="gini = 0.0\nsamples = 4\nvalue = [6, 0]\nclass = vaginal"] ;
495 -> 497 ;
498 [label="gini = 0.0\nsamples = 1\nvalue = [1, 0]\nclass = vaginal"] ;
492 -> 498 ;
499 [label="BMI <= 34.55\ngini = 0.425\nsamples = 55\nvalue = [26, 59]\nclass = c-section"] ;
491 -> 499 ;
500 [label="Pre_Pregnancy_Weight <= 175.5\ngini = 0.249\nsamples = 28\nvalue = [7, 41]\nclass = c-section"] ;
499 -> 500 ;
501 [label="gini = 0.0\nsamples = 14\nvalue = [0, 24]\nclass = c-section"] ;
500 -> 501 ;
502 [label="Marital_Status_  <= 0.5\ngini = 0.413\nsamples = 14\nvalue = [7, 17]\nclass = c-section"] ;
500 -> 502 ;
503 [label="gini = 0.351\nsamples = 12\nvalue = [5, 17]\nclass = c-section"] ;
502 -> 503 ;
504 [label="gini = 0.0\nsamples = 2\nvalue = [2, 0]\nclass = vaginal"] ;
502 -> 504 ;
505 [label="BMI <= 39.7\ngini = 0.5\nsamples = 27\nvalue = [19, 18]\nclass = vaginal"] ;
499 -> 505 ;
506 [label="Weight_Gain <= 53.0\ngini = 0.496\nsamples = 25\nvalue = [15, 18]\nclass = c-section"] ;
505 -> 506 ;
507 [label="gini = 0.5\nsamples = 23\nvalue = [15, 15]\nclass = vaginal"] ;
506 -> 507 ;
508 [label="gini = 0.0\nsamples = 2\nvalue = [0, 3]\nclass = c-section"] ;
506 -> 508 ;
509 [label="gini = 0.0\nsamples = 2\nvalue = [4, 0]\nclass = vaginal"] ;
505 -> 509 ;
510 [label="Pre_Pregnancy_Weight <= 197.0\ngini = 0.298\nsamples = 8\nvalue = [9, 2]\nclass = vaginal"] ;
490 -> 510 ;
511 [label="BMI <= 34.6\ngini = 0.18\nsamples = 7\nvalue = [9, 1]\nclass = vaginal"] ;
510 -> 511 ;
512 [label="gini = 0.0\nsamples = 5\nvalue = [8, 0]\nclass = vaginal"] ;
511 -> 512 ;
513 [label="Pre_Pregnancy_Weight <= 188.0\ngini = 0.5\nsamples = 2\nvalue = [1, 1]\nclass = vaginal"] ;
511 -> 513 ;
514 [label="gini = 0.0\nsamples = 1\nvalue = [0, 1]\nclass = c-section"] ;
513 -> 514 ;
515 [label="gini = 0.0\nsamples = 1\nvalue = [1, 0]\nclass = vaginal"] ;
513 -> 515 ;
516 [label="gini = 0.0\nsamples = 1\nvalue = [0, 1]\nclass = c-section"] ;
510 -> 516 ;
517 [label="Prior_Terminations <= 3.0\ngini = 0.32\nsamples = 83\nvalue = [24, 96]\nclass = c-section"] ;
465 -> 517 ;
518 [label="Pre_Pregnancy_Weight <= 316.0\ngini = 0.312\nsamples = 82\nvalue = [23, 96]\nclass = c-section"] ;
517 -> 518 ;
519 [label="Marital_Status_  <= 0.5\ngini = 0.219\nsamples = 67\nvalue = [12, 84]\nclass = c-section"] ;
518 -> 519 ;
520 [label="Age_of_Mother <= 22.5\ngini = 0.238\nsamples = 59\nvalue = [12, 75]\nclass = c-section"] ;
519 -> 520 ;
521 [label="gini = 0.0\nsamples = 16\nvalue = [0, 26]\nclass = c-section"] ;
520 -> 521 ;
522 [label="Weight_Gain <= 11.5\ngini = 0.316\nsamples = 43\nvalue = [12, 49]\nclass = c-section"] ;
520 -> 522 ;
523 [label="Age_of_Mother <= 26.5\ngini = 0.475\nsamples = 12\nvalue = [7, 11]\nclass = c-section"] ;
522 -> 523 ;
524 [label="gini = 0.463\nsamples = 7\nvalue = [7, 4]\nclass = vaginal"] ;
523 -> 524 ;
525 [label="gini = 0.0\nsamples = 5\nvalue = [0, 7]\nclass = c-section"] ;
523 -> 525 ;
526 [label="Age_of_Mother <= 27.5\ngini = 0.206\nsamples = 31\nvalue = [5, 38]\nclass = c-section"] ;
522 -> 526 ;
527 [label="gini = 0.305\nsamples = 13\nvalue = [3, 13]\nclass = c-section"] ;
526 -> 527 ;
528 [label="gini = 0.137\nsamples = 18\nvalue = [2, 25]\nclass = c-section"] ;
526 -> 528 ;
529 [label="gini = 0.0\nsamples = 8\nvalue = [0, 9]\nclass = c-section"] ;
519 -> 529 ;
530 [label="Mothers_Height_in_Inches <= 61.5\ngini = 0.499\nsamples = 15\nvalue = [11, 12]\nclass = c-section"] ;
518 -> 530 ;
531 [label="gini = 0.0\nsamples = 2\nvalue = [0, 3]\nclass = c-section"] ;
530 -> 531 ;
532 [label="Induction_of_labor_Y <= 0.5\ngini = 0.495\nsamples = 13\nvalue = [11, 9]\nclass = vaginal"] ;
530 -> 532 ;
533 [label="gini = 0.0\nsamples = 5\nvalue = [0, 5]\nclass = c-section"] ;
532 -> 533 ;
534 [label="BMI <= 80.05\ngini = 0.391\nsamples = 8\nvalue = [11, 4]\nclass = vaginal"] ;
532 -> 534 ;
535 [label="gini = 0.0\nsamples = 2\nvalue = [4, 0]\nclass = vaginal"] ;
534 -> 535 ;
536 [label="Mothers_Height_in_Inches <= 62.5\ngini = 0.463\nsamples = 6\nvalue = [7, 4]\nclass = vaginal"] ;
534 -> 536 ;
537 [label="gini = 0.444\nsamples = 2\nvalue = [2, 1]\nclass = vaginal"] ;
536 -> 537 ;
538 [label="gini = 0.469\nsamples = 4\nvalue = [5, 3]\nclass = vaginal"] ;
536 -> 538 ;
539 [label="gini = 0.0\nsamples = 1\nvalue = [1, 0]\nclass = vaginal"] ;
517 -> 539 ;
540 [label="gini = 0.0\nsamples = 14\nvalue = [22, 0]\nclass = vaginal"] ;
438 -> 540 ;
541 [label="Medical_Attendant <= 2.5\ngini = 0.246\nsamples = 149\nvalue = [35, 209]\nclass = c-section"] ;
437 -> 541 ;
542 [label="Marital_Status_  <= 0.5\ngini = 0.22\nsamples = 145\nvalue = [30, 209]\nclass = c-section"] ;
541 -> 542 ;
543 [label="Age_of_Mother <= 32.5\ngini = 0.194\nsamples = 134\nvalue = [24, 196]\nclass = c-section"] ;
542 -> 543 ;
544 [label="Induction_of_labor_Y <= 0.5\ngini = 0.308\nsamples = 25\nvalue = [8, 34]\nclass = c-section"] ;
543 -> 544 ;
545 [label="Weight_Gain <= 71.5\ngini = 0.236\nsamples = 14\nvalue = [3, 19]\nclass = c-section"] ;
544 -> 545 ;
546 [label="gini = 0.0\nsamples = 11\nvalue = [0, 18]\nclass = c-section"] ;
545 -> 546 ;
547 [label="Mothers_Height_in_Inches <= 62.5\ngini = 0.375\nsamples = 3\nvalue = [3, 1]\nclass = vaginal"] ;
545 -> 547 ;
548 [label="gini = 0.0\nsamples = 2\nvalue = [3, 0]\nclass = vaginal"] ;
547 -> 548 ;
549 [label="gini = 0.0\nsamples = 1\nvalue = [0, 1]\nclass = c-section"] ;
547 -> 549 ;
550 [label="BMI <= 33.75\ngini = 0.375\nsamples = 11\nvalue = [5, 15]\nclass = c-section"] ;
544 -> 550 ;
551 [label="Weight_Gain <= 32.5\ngini = 0.219\nsamples = 8\nvalue = [2, 14]\nclass = c-section"] ;
550 -> 551 ;
552 [label="Weight_Gain <= 15.0\ngini = 0.5\nsamples = 4\nvalue = [2, 2]\nclass = vaginal"] ;
551 -> 552 ;
553 [label="gini = 0.0\nsamples = 1\nvalue = [0, 1]\nclass = c-section"] ;
552 -> 553 ;
554 [label="Mothers_Height_in_Inches <= 62.5\ngini = 0.444\nsamples = 3\nvalue = [2, 1]\nclass = vaginal"] ;
552 -> 554 ;
555 [label="Pre_Pregnancy_Weight <= 165.5\ngini = 0.5\nsamples = 2\nvalue = [1, 1]\nclass = vaginal"] ;
554 -> 555 ;
556 [label="gini = 0.0\nsamples = 1\nvalue = [1, 0]\nclass = vaginal"] ;
555 -> 556 ;
557 [label="gini = 0.0\nsamples = 1\nvalue = [0, 1]\nclass = c-section"] ;
555 -> 557 ;
558 [label="gini = 0.0\nsamples = 1\nvalue = [1, 0]\nclass = vaginal"] ;
554 -> 558 ;
559 [label="gini = 0.0\nsamples = 4\nvalue = [0, 12]\nclass = c-section"] ;
551 -> 559 ;
560 [label="Weight_Gain <= 15.5\ngini = 0.375\nsamples = 3\nvalue = [3, 1]\nclass = vaginal"] ;
550 -> 560 ;
561 [label="gini = 0.0\nsamples = 1\nvalue = [0, 1]\nclass = c-section"] ;
560 -> 561 ;
562 [label="gini = 0.0\nsamples = 2\nvalue = [3, 0]\nclass = vaginal"] ;
560 -> 562 ;
563 [label="Pre_Pregnancy_Weight <= 176.5\ngini = 0.164\nsamples = 109\nvalue = [16, 162]\nclass = c-section"] ;
543 -> 563 ;
564 [label="Induction_of_labor_N <= 0.5\ngini = 0.29\nsamples = 44\nvalue = [13, 61]\nclass = c-section"] ;
563 -> 564 ;
565 [label="BMI <= 29.35\ngini = 0.418\nsamples = 23\nvalue = [11, 26]\nclass = c-section"] ;
564 -> 565 ;
566 [label="NO_MORBIDITY <= 0.5\ngini = 0.172\nsamples = 12\nvalue = [2, 19]\nclass = c-section"] ;
565 -> 566 ;
567 [label="gini = 0.0\nsamples = 1\nvalue = [1, 0]\nclass = vaginal"] ;
566 -> 567 ;
568 [label="Weight_Gain <= 22.0\ngini = 0.095\nsamples = 11\nvalue = [1, 19]\nclass = c-section"] ;
566 -> 568 ;
569 [label="Weight_Gain <= 13.0\ngini = 0.5\nsamples = 2\nvalue = [1, 1]\nclass = vaginal"] ;
568 -> 569 ;
570 [label="gini = 0.0\nsamples = 1\nvalue = [0, 1]\nclass = c-section"] ;
569 -> 570 ;
571 [label="gini = 0.0\nsamples = 1\nvalue = [1, 0]\nclass = vaginal"] ;
569 -> 571 ;
572 [label="gini = 0.0\nsamples = 9\nvalue = [0, 18]\nclass = c-section"] ;
568 -> 572 ;
573 [label="Mothers_Height_in_Inches <= 62.5\ngini = 0.492\nsamples = 11\nvalue = [9, 7]\nclass = vaginal"] ;
565 -> 573 ;
574 [label="Mothers_Height_in_Inches <= 55.0\ngini = 0.486\nsamples = 9\nvalue = [5, 7]\nclass = c-section"] ;
573 -> 574 ;
575 [label="gini = 0.0\nsamples = 1\nvalue = [0, 1]\nclass = c-section"] ;
574 -> 575 ;
576 [label="Age_of_Mother <= 38.5\ngini = 0.496\nsamples = 8\nvalue = [5, 6]\nclass = c-section"] ;
574 -> 576 ;
577 [label="gini = 0.444\nsamples = 4\nvalue = [4, 2]\nclass = vaginal"] ;
576 -> 577 ;
578 [label="gini = 0.32\nsamples = 4\nvalue = [1, 4]\nclass = c-section"] ;
576 -> 578 ;
579 [label="gini = 0.0\nsamples = 2\nvalue = [4, 0]\nclass = vaginal"] ;
573 -> 579 ;
580 [label="Pre_Pregnancy_Weight <= 171.0\ngini = 0.102\nsamples = 21\nvalue = [2, 35]\nclass = c-section"] ;
564 -> 580 ;
581 [label="gini = 0.0\nsamples = 17\nvalue = [0, 32]\nclass = c-section"] ;
580 -> 581 ;
582 [label="Pre_Pregnancy_Weight <= 172.5\ngini = 0.48\nsamples = 4\nvalue = [2, 3]\nclass = c-section"] ;
580 -> 582 ;
583 [label="gini = 0.0\nsamples = 1\nvalue = [2, 0]\nclass = vaginal"] ;
582 -> 583 ;
584 [label="gini = 0.0\nsamples = 3\nvalue = [0, 3]\nclass = c-section"] ;
582 -> 584 ;
585 [label="Weight_Gain <= 18.5\ngini = 0.056\nsamples = 65\nvalue = [3, 101]\nclass = c-section"] ;
563 -> 585 ;
586 [label="Mothers_Height_in_Inches <= 60.5\ngini = 0.149\nsamples = 25\nvalue = [3, 34]\nclass = c-section"] ;
585 -> 586 ;
587 [label="gini = 0.0\nsamples = 7\nvalue = [0, 10]\nclass = c-section"] ;
586 -> 587 ;
588 [label="Weight_Gain <= 17.0\ngini = 0.198\nsamples = 18\nvalue = [3, 24]\nclass = c-section"] ;
586 -> 588 ;
589 [label="Pre_Pregnancy_Weight <= 179.5\ngini = 0.077\nsamples = 17\nvalue = [1, 24]\nclass = c-section"] ;
588 -> 589 ;
590 [label="Mothers_Height_in_Inches <= 61.5\ngini = 0.5\nsamples = 2\nvalue = [1, 1]\nclass = vaginal"] ;
589 -> 590 ;
591 [label="gini = 0.0\nsamples = 1\nvalue = [0, 1]\nclass = c-section"] ;
590 -> 591 ;
592 [label="gini = 0.0\nsamples = 1\nvalue = [1, 0]\nclass = vaginal"] ;
590 -> 592 ;
593 [label="gini = 0.0\nsamples = 15\nvalue = [0, 23]\nclass = c-section"] ;
589 -> 593 ;
594 [label="gini = 0.0\nsamples = 1\nvalue = [2, 0]\nclass = vaginal"] ;
588 -> 594 ;
595 [label="gini = 0.0\nsamples = 40\nvalue = [0, 67]\nclass = c-section"] ;
585 -> 595 ;
596 [label="Pre_Pregnancy_Weight <= 173.5\ngini = 0.432\nsamples = 11\nvalue = [6, 13]\nclass = c-section"] ;
542 -> 596 ;
597 [label="Weight_Gain <= 14.0\ngini = 0.48\nsamples = 6\nvalue = [6, 4]\nclass = vaginal"] ;
596 -> 597 ;
598 [label="gini = 0.0\nsamples = 2\nvalue = [5, 0]\nclass = vaginal"] ;
597 -> 598 ;
599 [label="Mothers_Height_in_Inches <= 61.0\ngini = 0.32\nsamples = 4\nvalue = [1, 4]\nclass = c-section"] ;
597 -> 599 ;
600 [label="gini = 0.0\nsamples = 2\nvalue = [0, 3]\nclass = c-section"] ;
599 -> 600 ;
601 [label="BMI <= 29.05\ngini = 0.5\nsamples = 2\nvalue = [1, 1]\nclass = vaginal"] ;
599 -> 601 ;
602 [label="gini = 0.0\nsamples = 1\nvalue = [0, 1]\nclass = c-section"] ;
601 -> 602 ;
603 [label="gini = 0.0\nsamples = 1\nvalue = [1, 0]\nclass = vaginal"] ;
601 -> 603 ;
604 [label="gini = 0.0\nsamples = 5\nvalue = [0, 9]\nclass = c-section"] ;
596 -> 604 ;
605 [label="gini = 0.0\nsamples = 4\nvalue = [5, 0]\nclass = vaginal"] ;
541 -> 605 ;
606 [label="Weight_Gain <= 98.5\ngini = 0.49\nsamples = 1183\nvalue = [791, 1046]\nclass = c-section"] ;
436 -> 606 ;
607 [label="Age_of_Mother <= 27.5\ngini = 0.487\nsamples = 1108\nvalue = [724, 1000]\nclass = c-section"] ;
606 -> 607 ;
608 [label="Pre_Pregnancy_Weight <= 204.5\ngini = 0.5\nsamples = 674\nvalue = [521, 529]\nclass = c-section"] ;
607 -> 608 ;
609 [label="Prior_Terminations <= 0.5\ngini = 0.498\nsamples = 561\nvalue = [459, 411]\nclass = vaginal"] ;
608 -> 609 ;
610 [label="Medical_Attendant <= 2.5\ngini = 0.496\nsamples = 476\nvalue = [401, 334]\nclass = vaginal"] ;
609 -> 610 ;
611 [label="Induction_of_labor_N <= 0.5\ngini = 0.5\nsamples = 439\nvalue = [347, 330]\nclass = vaginal"] ;
610 -> 611 ;
612 [label="BMI <= 28.4\ngini = 0.497\nsamples = 157\nvalue = [108, 125]\nclass = c-section"] ;
611 -> 612 ;
613 [label="Marital_Status_  <= 0.5\ngini = 0.448\nsamples = 40\nvalue = [20, 39]\nclass = c-section"] ;
612 -> 613 ;
614 [label="Mothers_Height_in_Inches <= 61.5\ngini = 0.38\nsamples = 35\nvalue = [13, 38]\nclass = c-section"] ;
613 -> 614 ;
615 [label="Age_of_Mother <= 23.5\ngini = 0.469\nsamples = 4\nvalue = [3, 5]\nclass = c-section"] ;
614 -> 615 ;
616 [label="gini = 0.0\nsamples = 2\nvalue = [0, 5]\nclass = c-section"] ;
615 -> 616 ;
617 [label="gini = 0.0\nsamples = 2\nvalue = [3, 0]\nclass = vaginal"] ;
615 -> 617 ;
618 [label="Weight_Gain <= 23.5\ngini = 0.357\nsamples = 31\nvalue = [10, 33]\nclass = c-section"] ;
614 -> 618 ;
619 [label="gini = 0.469\nsamples = 8\nvalue = [5, 3]\nclass = vaginal"] ;
618 -> 619 ;
620 [label="gini = 0.245\nsamples = 23\nvalue = [5, 30]\nclass = c-section"] ;
618 -> 620 ;
621 [label="Mothers_Height_in_Inches <= 61.5\ngini = 0.219\nsamples = 5\nvalue = [7, 1]\nclass = vaginal"] ;
613 -> 621 ;
622 [label="gini = 0.0\nsamples = 1\nvalue = [0, 1]\nclass = c-section"] ;
621 -> 622 ;
623 [label="gini = 0.0\nsamples = 4\nvalue = [7, 0]\nclass = vaginal"] ;
621 -> 623 ;
624 [label="Weight_Gain <= 29.5\ngini = 0.5\nsamples = 117\nvalue = [88, 86]\nclass = vaginal"] ;
612 -> 624 ;
625 [label="Marital_Status_  <= 0.5\ngini = 0.47\nsamples = 71\nvalue = [66, 40]\nclass = vaginal"] ;
624 -> 625 ;
626 [label="Mothers_Height_in_Inches <= 53.5\ngini = 0.471\nsamples = 62\nvalue = [59, 36]\nclass = vaginal"] ;
625 -> 626 ;
627 [label="gini = 0.0\nsamples = 1\nvalue = [2, 0]\nclass = vaginal"] ;
626 -> 627 ;
628 [label="gini = 0.475\nsamples = 61\nvalue = [57, 36]\nclass = vaginal"] ;
626 -> 628 ;
629 [label="Weight_Gain <= 16.0\ngini = 0.463\nsamples = 9\nvalue = [7, 4]\nclass = vaginal"] ;
625 -> 629 ;
630 [label="gini = 0.0\nsamples = 2\nvalue = [0, 2]\nclass = c-section"] ;
629 -> 630 ;
631 [label="gini = 0.346\nsamples = 7\nvalue = [7, 2]\nclass = vaginal"] ;
629 -> 631 ;
632 [label="Pre_Pregnancy_Weight <= 162.0\ngini = 0.438\nsamples = 46\nvalue = [22, 46]\nclass = c-section"] ;
624 -> 632 ;
633 [label="gini = 0.0\nsamples = 8\nvalue = [0, 12]\nclass = c-section"] ;
632 -> 633 ;
634 [label="Medical_Attendant <= 1.5\ngini = 0.477\nsamples = 38\nvalue = [22, 34]\nclass = c-section"] ;
632 -> 634 ;
635 [label="gini = 0.48\nsamples = 37\nvalue = [22, 33]\nclass = c-section"] ;
634 -> 635 ;
636 [label="gini = 0.0\nsamples = 1\nvalue = [0, 1]\nclass = c-section"] ;
634 -> 636 ;
637 [label="BMI <= 29.55\ngini = 0.497\nsamples = 282\nvalue = [239, 205]\nclass = vaginal"] ;
611 -> 637 ;
638 [label="Cigarette_Consumption <= 7.0\ngini = 0.456\nsamples = 104\nvalue = [103, 56]\nclass = vaginal"] ;
637 -> 638 ;
639 [label="Cigarette_Consumption <= 1.0\ngini = 0.454\nsamples = 103\nvalue = [103, 55]\nclass = vaginal"] ;
638 -> 639 ;
640 [label="Weight_Gain <= 29.0\ngini = 0.459\nsamples = 101\nvalue = [99, 55]\nclass = vaginal"] ;
639 -> 640 ;
641 [label="gini = 0.349\nsamples = 48\nvalue = [55, 16]\nclass = vaginal"] ;
640 -> 641 ;
642 [label="gini = 0.498\nsamples = 53\nvalue = [44, 39]\nclass = vaginal"] ;
640 -> 642 ;
643 [label="gini = 0.0\nsamples = 2\nvalue = [4, 0]\nclass = vaginal"] ;
639 -> 643 ;
644 [label="gini = 0.0\nsamples = 1\nvalue = [0, 1]\nclass = c-section"] ;
638 -> 644 ;
645 [label="BMI <= 30.15\ngini = 0.499\nsamples = 178\nvalue = [136, 149]\nclass = c-section"] ;
637 -> 645 ;
646 [label="Age_of_Mother <= 17.5\ngini = 0.375\nsamples = 14\nvalue = [6, 18]\nclass = c-section"] ;
645 -> 646 ;
647 [label="gini = 0.0\nsamples = 1\nvalue = [1, 0]\nclass = vaginal"] ;
646 -> 647 ;
648 [label="Cigarette_Consumption <= 2.0\ngini = 0.34\nsamples = 13\nvalue = [5, 18]\nclass = c-section"] ;
646 -> 648 ;
649 [label="gini = 0.363\nsamples = 12\nvalue = [5, 16]\nclass = c-section"] ;
648 -> 649 ;
650 [label="gini = 0.0\nsamples = 1\nvalue = [0, 2]\nclass = c-section"] ;
648 -> 650 ;
651 [label="NO_MORBIDITY <= 0.5\ngini = 0.5\nsamples = 164\nvalue = [130, 131]\nclass = c-section"] ;
645 -> 651 ;
652 [label="Weight_Gain <= 19.0\ngini = 0.5\nsamples = 2\nvalue = [1, 1]\nclass = vaginal"] ;
651 -> 652 ;
653 [label="gini = 0.0\nsamples = 1\nvalue = [1, 0]\nclass = vaginal"] ;
652 -> 653 ;
654 [label="gini = 0.0\nsamples = 1\nvalue = [0, 1]\nclass = c-section"] ;
652 -> 654 ;
655 [label="Cigarette_Consumption <= 6.0\ngini = 0.5\nsamples = 162\nvalue = [129, 130]\nclass = c-section"] ;
651 -> 655 ;
656 [label="gini = 0.5\nsamples = 159\nvalue = [129, 125]\nclass = vaginal"] ;
655 -> 656 ;
657 [label="gini = 0.0\nsamples = 3\nvalue = [0, 5]\nclass = c-section"] ;
655 -> 657 ;
658 [label="Age_of_Mother <= 26.5\ngini = 0.128\nsamples = 37\nvalue = [54, 4]\nclass = vaginal"] ;
610 -> 658 ;
659 [label="Weight_Gain <= 53.5\ngini = 0.078\nsamples = 33\nvalue = [47, 2]\nclass = vaginal"] ;
658 -> 659 ;
660 [label="gini = 0.0\nsamples = 32\nvalue = [47, 0]\nclass = vaginal"] ;
659 -> 660 ;
661 [label="gini = 0.0\nsamples = 1\nvalue = [0, 2]\nclass = c-section"] ;
659 -> 661 ;
662 [label="Mothers_Height_in_Inches <= 61.5\ngini = 0.346\nsamples = 4\nvalue = [7, 2]\nclass = vaginal"] ;
658 -> 662 ;
663 [label="gini = 0.0\nsamples = 1\nvalue = [0, 2]\nclass = c-section"] ;
662 -> 663 ;
664 [label="gini = 0.0\nsamples = 3\nvalue = [7, 0]\nclass = vaginal"] ;
662 -> 664 ;
665 [label="BMI <= 36.55\ngini = 0.49\nsamples = 85\nvalue = [58, 77]\nclass = c-section"] ;
609 -> 665 ;
666 [label="Weight_Gain <= 57.0\ngini = 0.497\nsamples = 76\nvalue = [56, 66]\nclass = c-section"] ;
665 -> 666 ;
667 [label="Medical_Attendant <= 2.5\ngini = 0.5\nsamples = 73\nvalue = [56, 56]\nclass = vaginal"] ;
666 -> 667 ;
668 [label="BMI <= 36.15\ngini = 0.496\nsamples = 68\nvalue = [47, 56]\nclass = c-section"] ;
667 -> 668 ;
669 [label="Prior_Terminations <= 2.5\ngini = 0.491\nsamples = 66\nvalue = [43, 56]\nclass = c-section"] ;
668 -> 669 ;
670 [label="Weight_Gain <= 15.0\ngini = 0.496\nsamples = 63\nvalue = [42, 50]\nclass = c-section"] ;
669 -> 670 ;
671 [label="gini = 0.117\nsamples = 11\nvalue = [1, 15]\nclass = c-section"] ;
670 -> 671 ;
672 [label="gini = 0.497\nsamples = 52\nvalue = [41, 35]\nclass = vaginal"] ;
670 -> 672 ;
673 [label="Age_of_Mother <= 21.5\ngini = 0.245\nsamples = 3\nvalue = [1, 6]\nclass = c-section"] ;
669 -> 673 ;
674 [label="gini = 0.0\nsamples = 1\nvalue = [1, 0]\nclass = vaginal"] ;
673 -> 674 ;
675 [label="gini = 0.0\nsamples = 2\nvalue = [0, 6]\nclass = c-section"] ;
673 -> 675 ;
676 [label="gini = 0.0\nsamples = 2\nvalue = [4, 0]\nclass = vaginal"] ;
668 -> 676 ;
677 [label="gini = 0.0\nsamples = 5\nvalue = [9, 0]\nclass = vaginal"] ;
667 -> 677 ;
678 [label="gini = 0.0\nsamples = 3\nvalue = [0, 10]\nclass = c-section"] ;
666 -> 678 ;
679 [label="Pre_Pregnancy_Weight <= 202.0\ngini = 0.26\nsamples = 9\nvalue = [2, 11]\nclass = c-section"] ;
665 -> 679 ;
680 [label="BMI <= 39.35\ngini = 0.153\nsamples = 8\nvalue = [1, 11]\nclass = c-section"] ;
679 -> 680 ;
681 [label="gini = 0.0\nsamples = 7\nvalue = [0, 11]\nclass = c-section"] ;
680 -> 681 ;
682 [label="gini = 0.0\nsamples = 1\nvalue = [1, 0]\nclass = vaginal"] ;
680 -> 682 ;
683 [label="gini = 0.0\nsamples = 1\nvalue = [1, 0]\nclass = vaginal"] ;
679 -> 683 ;
684 [label="Mothers_Height_in_Inches <= 61.5\ngini = 0.452\nsamples = 113\nvalue = [62, 118]\nclass = c-section"] ;
608 -> 684 ;
685 [label="Cigarette_Consumption <= 1.5\ngini = 0.245\nsamples = 31\nvalue = [7, 42]\nclass = c-section"] ;
684 -> 685 ;
686 [label="Marital_Status_  <= 0.5\ngini = 0.258\nsamples = 29\nvalue = [7, 39]\nclass = c-section"] ;
685 -> 686 ;
687 [label="BMI <= 40.15\ngini = 0.273\nsamples = 28\nvalue = [7, 36]\nclass = c-section"] ;
686 -> 687 ;
688 [label="Prior_Terminations <= 0.5\ngini = 0.5\nsamples = 2\nvalue = [2, 2]\nclass = vaginal"] ;
687 -> 688 ;
689 [label="gini = 0.0\nsamples = 1\nvalue = [0, 2]\nclass = c-section"] ;
688 -> 689 ;
690 [label="gini = 0.0\nsamples = 1\nvalue = [2, 0]\nclass = vaginal"] ;
688 -> 690 ;
691 [label="NO_MORBIDITY <= 0.5\ngini = 0.224\nsamples = 26\nvalue = [5, 34]\nclass = c-section"] ;
687 -> 691 ;
692 [label="Pre_Pregnancy_Weight <= 213.5\ngini = 0.5\nsamples = 2\nvalue = [1, 1]\nclass = vaginal"] ;
691 -> 692 ;
693 [label="gini = 0.0\nsamples = 1\nvalue = [0, 1]\nclass = c-section"] ;
692 -> 693 ;
694 [label="gini = 0.0\nsamples = 1\nvalue = [1, 0]\nclass = vaginal"] ;
692 -> 694 ;
695 [label="Weight_Gain <= 23.0\ngini = 0.193\nsamples = 24\nvalue = [4, 33]\nclass = c-section"] ;
691 -> 695 ;
696 [label="Prior_Terminations <= 0.5\ngini = 0.36\nsamples = 12\nvalue = [4, 13]\nclass = c-section"] ;
695 -> 696 ;
697 [label="gini = 0.408\nsamples = 10\nvalue = [4, 10]\nclass = c-section"] ;
696 -> 697 ;
698 [label="gini = 0.0\nsamples = 2\nvalue = [0, 3]\nclass = c-section"] ;
696 -> 698 ;
699 [label="gini = 0.0\nsamples = 12\nvalue = [0, 20]\nclass = c-section"] ;
695 -> 699 ;
700 [label="gini = 0.0\nsamples = 1\nvalue = [0, 3]\nclass = c-section"] ;
686 -> 700 ;
701 [label="gini = 0.0\nsamples = 2\nvalue = [0, 3]\nclass = c-section"] ;
685 -> 701 ;
702 [label="Medical_Attendant <= 2.5\ngini = 0.487\nsamples = 82\nvalue = [55, 76]\nclass = c-section"] ;
684 -> 702 ;
703 [label="Induction_of_labor_Y <= 0.5\ngini = 0.472\nsamples = 76\nvalue = [45, 73]\nclass = c-section"] ;
702 -> 703 ;
704 [label="Weight_Gain <= 67.0\ngini = 0.367\nsamples = 48\nvalue = [16, 50]\nclass = c-section"] ;
703 -> 704 ;
705 [label="Pre_Pregnancy_Weight <= 243.5\ngini = 0.342\nsamples = 47\nvalue = [14, 50]\nclass = c-section"] ;
704 -> 705 ;
706 [label="Weight_Gain <= 18.5\ngini = 0.282\nsamples = 38\nvalue = [9, 44]\nclass = c-section"] ;
705 -> 706 ;
707 [label="Weight_Gain <= 12.0\ngini = 0.444\nsamples = 12\nvalue = [4, 8]\nclass = c-section"] ;
706 -> 707 ;
708 [label="gini = 0.346\nsamples = 9\nvalue = [2, 7]\nclass = c-section"] ;
707 -> 708 ;
709 [label="gini = 0.444\nsamples = 3\nvalue = [2, 1]\nclass = vaginal"] ;
707 -> 709 ;
710 [label="Medical_Attendant <= 1.5\ngini = 0.214\nsamples = 26\nvalue = [5, 36]\nclass = c-section"] ;
706 -> 710 ;
711 [label="gini = 0.161\nsamples = 22\nvalue = [3, 31]\nclass = c-section"] ;
710 -> 711 ;
712 [label="gini = 0.408\nsamples = 4\nvalue = [2, 5]\nclass = c-section"] ;
710 -> 712 ;
713 [label="Cigarette_Consumption <= 0.5\ngini = 0.496\nsamples = 9\nvalue = [5, 6]\nclass = c-section"] ;
705 -> 713 ;
714 [label="Weight_Gain <= 25.5\ngini = 0.48\nsamples = 8\nvalue = [4, 6]\nclass = c-section"] ;
713 -> 714 ;
715 [label="gini = 0.0\nsamples = 3\nvalue = [0, 4]\nclass = c-section"] ;
714 -> 715 ;
716 [label="gini = 0.444\nsamples = 5\nvalue = [4, 2]\nclass = vaginal"] ;
714 -> 716 ;
717 [label="gini = 0.0\nsamples = 1\nvalue = [1, 0]\nclass = vaginal"] ;
713 -> 717 ;
718 [label="gini = 0.0\nsamples = 1\nvalue = [2, 0]\nclass = vaginal"] ;
704 -> 718 ;
719 [label="Pre_Pregnancy_Weight <= 219.5\ngini = 0.493\nsamples = 28\nvalue = [29, 23]\nclass = vaginal"] ;
703 -> 719 ;
720 [label="Age_of_Mother <= 25.5\ngini = 0.42\nsamples = 11\nvalue = [14, 6]\nclass = vaginal"] ;
719 -> 720 ;
721 [label="gini = 0.0\nsamples = 6\nvalue = [11, 0]\nclass = vaginal"] ;
720 -> 721 ;
722 [label="NO_MORBIDITY <= 0.5\ngini = 0.444\nsamples = 5\nvalue = [3, 6]\nclass = c-section"] ;
720 -> 722 ;
723 [label="gini = 0.0\nsamples = 1\nvalue = [3, 0]\nclass = vaginal"] ;
722 -> 723 ;
724 [label="gini = 0.0\nsamples = 4\nvalue = [0, 6]\nclass = c-section"] ;
722 -> 724 ;
725 [label="Medical_Attendant <= 1.5\ngini = 0.498\nsamples = 17\nvalue = [15, 17]\nclass = c-section"] ;
719 -> 725 ;
726 [label="Weight_Gain <= 32.5\ngini = 0.499\nsamples = 15\nvalue = [15, 14]\nclass = vaginal"] ;
725 -> 726 ;
727 [label="BMI <= 39.5\ngini = 0.454\nsamples = 12\nvalue = [15, 8]\nclass = vaginal"] ;
726 -> 727 ;
728 [label="gini = 0.375\nsamples = 3\nvalue = [1, 3]\nclass = c-section"] ;
727 -> 728 ;
729 [label="gini = 0.388\nsamples = 9\nvalue = [14, 5]\nclass = vaginal"] ;
727 -> 729 ;
730 [label="gini = 0.0\nsamples = 3\nvalue = [0, 6]\nclass = c-section"] ;
726 -> 730 ;
731 [label="gini = 0.0\nsamples = 2\nvalue = [0, 3]\nclass = c-section"] ;
725 -> 731 ;
732 [label="Mothers_Height_in_Inches <= 62.5\ngini = 0.355\nsamples = 6\nvalue = [10, 3]\nclass = vaginal"] ;
702 -> 732 ;
733 [label="Induction_of_labor_Y <= 0.5\ngini = 0.49\nsamples = 3\nvalue = [4, 3]\nclass = vaginal"] ;
732 -> 733 ;
734 [label="gini = 0.0\nsamples = 1\nvalue = [2, 0]\nclass = vaginal"] ;
733 -> 734 ;
735 [label="Weight_Gain <= 12.5\ngini = 0.48\nsamples = 2\nvalue = [2, 3]\nclass = c-section"] ;
733 -> 735 ;
736 [label="gini = 0.0\nsamples = 1\nvalue = [2, 0]\nclass = vaginal"] ;
735 -> 736 ;
737 [label="gini = 0.0\nsamples = 1\nvalue = [0, 3]\nclass = c-section"] ;
735 -> 737 ;
738 [label="gini = 0.0\nsamples = 3\nvalue = [6, 0]\nclass = vaginal"] ;
732 -> 738 ;
739 [label="Medical_Attendant <= 2.5\ngini = 0.421\nsamples = 434\nvalue = [203, 471]\nclass = c-section"] ;
607 -> 739 ;
740 [label="BMI <= 41.8\ngini = 0.391\nsamples = 416\nvalue = [171, 470]\nclass = c-section"] ;
739 -> 740 ;
741 [label="Mothers_Height_in_Inches <= 60.5\ngini = 0.401\nsamples = 396\nvalue = [169, 439]\nclass = c-section"] ;
740 -> 741 ;
742 [label="Age_of_Mother <= 37.5\ngini = 0.23\nsamples = 44\nvalue = [9, 59]\nclass = c-section"] ;
741 -> 742 ;
743 [label="Mothers_Height_in_Inches <= 58.5\ngini = 0.216\nsamples = 42\nvalue = [8, 57]\nclass = c-section"] ;
742 -> 743 ;
744 [label="Pre_Pregnancy_Weight <= 166.5\ngini = 0.5\nsamples = 5\nvalue = [3, 3]\nclass = vaginal"] ;
743 -> 744 ;
745 [label="Age_of_Mother <= 32.5\ngini = 0.375\nsamples = 3\nvalue = [1, 3]\nclass = c-section"] ;
744 -> 745 ;
746 [label="Pre_Pregnancy_Weight <= 155.0\ngini = 0.5\nsamples = 2\nvalue = [1, 1]\nclass = vaginal"] ;
745 -> 746 ;
747 [label="gini = 0.0\nsamples = 1\nvalue = [1, 0]\nclass = vaginal"] ;
746 -> 747 ;
748 [label="gini = 0.0\nsamples = 1\nvalue = [0, 1]\nclass = c-section"] ;
746 -> 748 ;
749 [label="gini = 0.0\nsamples = 1\nvalue = [0, 2]\nclass = c-section"] ;
745 -> 749 ;
750 [label="gini = 0.0\nsamples = 2\nvalue = [2, 0]\nclass = vaginal"] ;
744 -> 750 ;
751 [label="Age_of_Mother <= 30.5\ngini = 0.155\nsamples = 37\nvalue = [5, 54]\nclass = c-section"] ;
743 -> 751 ;
752 [label="Weight_Gain <= 11.5\ngini = 0.227\nsamples = 14\nvalue = [3, 20]\nclass = c-section"] ;
751 -> 752 ;
753 [label="gini = 0.0\nsamples = 1\nvalue = [1, 0]\nclass = vaginal"] ;
752 -> 753 ;
754 [label="Age_of_Mother <= 29.5\ngini = 0.165\nsamples = 13\nvalue = [2, 20]\nclass = c-section"] ;
752 -> 754 ;
755 [label="gini = 0.0\nsamples = 6\nvalue = [0, 11]\nclass = c-section"] ;
754 -> 755 ;
756 [label="gini = 0.298\nsamples = 7\nvalue = [2, 9]\nclass = c-section"] ;
754 -> 756 ;
757 [label="Weight_Gain <= 12.5\ngini = 0.105\nsamples = 23\nvalue = [2, 34]\nclass = c-section"] ;
751 -> 757 ;
758 [label="Prior_Terminations <= 0.5\ngini = 0.32\nsamples = 4\nvalue = [1, 4]\nclass = c-section"] ;
757 -> 758 ;
759 [label="gini = 0.5\nsamples = 2\nvalue = [1, 1]\nclass = vaginal"] ;
758 -> 759 ;
760 [label="gini = 0.0\nsamples = 2\nvalue = [0, 3]\nclass = c-section"] ;
758 -> 760 ;
761 [label="Mothers_Height_in_Inches <= 59.5\ngini = 0.062\nsamples = 19\nvalue = [1, 30]\nclass = c-section"] ;
757 -> 761 ;
762 [label="gini = 0.0\nsamples = 5\nvalue = [0, 8]\nclass = c-section"] ;
761 -> 762 ;
763 [label="gini = 0.083\nsamples = 14\nvalue = [1, 22]\nclass = c-section"] ;
761 -> 763 ;
764 [label="Age_of_Mother <= 38.5\ngini = 0.444\nsamples = 2\nvalue = [1, 2]\nclass = c-section"] ;
742 -> 764 ;
765 [label="gini = 0.0\nsamples = 1\nvalue = [1, 0]\nclass = vaginal"] ;
764 -> 765 ;
766 [label="gini = 0.0\nsamples = 1\nvalue = [0, 2]\nclass = c-section"] ;
764 -> 766 ;
767 [label="NO_MORBIDITY <= 0.5\ngini = 0.417\nsamples = 352\nvalue = [160, 380]\nclass = c-section"] ;
741 -> 767 ;
768 [label="Weight_Gain <= 19.0\ngini = 0.198\nsamples = 8\nvalue = [8, 1]\nclass = vaginal"] ;
767 -> 768 ;
769 [label="Weight_Gain <= 16.0\ngini = 0.375\nsamples = 3\nvalue = [3, 1]\nclass = vaginal"] ;
768 -> 769 ;
770 [label="gini = 0.0\nsamples = 2\nvalue = [3, 0]\nclass = vaginal"] ;
769 -> 770 ;
771 [label="gini = 0.0\nsamples = 1\nvalue = [0, 1]\nclass = c-section"] ;
769 -> 771 ;
772 [label="gini = 0.0\nsamples = 5\nvalue = [5, 0]\nclass = vaginal"] ;
768 -> 772 ;
773 [label="Cigarette_Consumption <= 4.0\ngini = 0.409\nsamples = 344\nvalue = [152, 379]\nclass = c-section"] ;
767 -> 773 ;
774 [label="Medical_Attendant <= 1.5\ngini = 0.413\nsamples = 335\nvalue = [150, 364]\nclass = c-section"] ;
773 -> 774 ;
775 [label="Prior_Terminations <= 2.5\ngini = 0.421\nsamples = 307\nvalue = [141, 327]\nclass = c-section"] ;
774 -> 775 ;
776 [label="Induction_of_labor_N <= 0.5\ngini = 0.414\nsamples = 297\nvalue = [132, 320]\nclass = c-section"] ;
775 -> 776 ;
777 [label="gini = 0.428\nsamples = 96\nvalue = [48, 107]\nclass = c-section"] ;
776 -> 777 ;
778 [label="gini = 0.406\nsamples = 201\nvalue = [84, 213]\nclass = c-section"] ;
776 -> 778 ;
779 [label="Induction_of_labor_Y <= 0.5\ngini = 0.492\nsamples = 10\nvalue = [9, 7]\nclass = vaginal"] ;
775 -> 779 ;
780 [label="gini = 0.245\nsamples = 4\nvalue = [6, 1]\nclass = vaginal"] ;
779 -> 780 ;
781 [label="gini = 0.444\nsamples = 6\nvalue = [3, 6]\nclass = c-section"] ;
779 -> 781 ;
782 [label="Weight_Gain <= 32.0\ngini = 0.315\nsamples = 28\nvalue = [9, 37]\nclass = c-section"] ;
774 -> 782 ;
783 [label="Induction_of_labor_N <= 0.5\ngini = 0.434\nsamples = 12\nvalue = [7, 15]\nclass = c-section"] ;
782 -> 783 ;
784 [label="gini = 0.0\nsamples = 1\nvalue = [0, 3]\nclass = c-section"] ;
783 -> 784 ;
785 [label="gini = 0.465\nsamples = 11\nvalue = [7, 12]\nclass = c-section"] ;
783 -> 785 ;
786 [label="BMI <= 35.1\ngini = 0.153\nsamples = 16\nvalue = [2, 22]\nclass = c-section"] ;
782 -> 786 ;
787 [label="gini = 0.198\nsamples = 13\nvalue = [2, 16]\nclass = c-section"] ;
786 -> 787 ;
788 [label="gini = 0.0\nsamples = 3\nvalue = [0, 6]\nclass = c-section"] ;
786 -> 788 ;
789 [label="Marital_Status_  <= 0.5\ngini = 0.208\nsamples = 9\nvalue = [2, 15]\nclass = c-section"] ;
773 -> 789 ;
790 [label="gini = 0.0\nsamples = 8\nvalue = [0, 15]\nclass = c-section"] ;
789 -> 790 ;
791 [label="gini = 0.0\nsamples = 1\nvalue = [2, 0]\nclass = vaginal"] ;
789 -> 791 ;
792 [label="BMI <= 56.6\ngini = 0.114\nsamples = 20\nvalue = [2, 31]\nclass = c-section"] ;
740 -> 792 ;
793 [label="gini = 0.0\nsamples = 19\nvalue = [0, 31]\nclass = c-section"] ;
792 -> 793 ;
794 [label="gini = 0.0\nsamples = 1\nvalue = [2, 0]\nclass = vaginal"] ;
792 -> 794 ;
795 [label="Pre_Pregnancy_Weight <= 231.0\ngini = 0.059\nsamples = 18\nvalue = [32, 1]\nclass = vaginal"] ;
739 -> 795 ;
796 [label="gini = 0.0\nsamples = 16\nvalue = [29, 0]\nclass = vaginal"] ;
795 -> 796 ;
797 [label="BMI <= 45.95\ngini = 0.375\nsamples = 2\nvalue = [3, 1]\nclass = vaginal"] ;
795 -> 797 ;
798 [label="gini = 0.0\nsamples = 1\nvalue = [0, 1]\nclass = c-section"] ;
797 -> 798 ;
799 [label="gini = 0.0\nsamples = 1\nvalue = [3, 0]\nclass = vaginal"] ;
797 -> 799 ;
800 [label="BMI <= 27.45\ngini = 0.483\nsamples = 75\nvalue = [67, 46]\nclass = vaginal"] ;
606 -> 800 ;
801 [label="gini = 0.0\nsamples = 1\nvalue = [5, 0]\nclass = vaginal"] ;
800 -> 801 ;
802 [label="Pre_Pregnancy_Weight <= 162.0\ngini = 0.489\nsamples = 74\nvalue = [62, 46]\nclass = vaginal"] ;
800 -> 802 ;
803 [label="Medical_Attendant <= 1.5\ngini = 0.278\nsamples = 5\nvalue = [1, 5]\nclass = c-section"] ;
802 -> 803 ;
804 [label="gini = 0.0\nsamples = 4\nvalue = [0, 5]\nclass = c-section"] ;
803 -> 804 ;
805 [label="gini = 0.0\nsamples = 1\nvalue = [1, 0]\nclass = vaginal"] ;
803 -> 805 ;
806 [label="Age_of_Mother <= 24.5\ngini = 0.481\nsamples = 69\nvalue = [61, 41]\nclass = vaginal"] ;
802 -> 806 ;
807 [label="Cigarette_Consumption <= 3.0\ngini = 0.303\nsamples = 28\nvalue = [35, 8]\nclass = vaginal"] ;
806 -> 807 ;
808 [label="Mothers_Height_in_Inches <= 62.5\ngini = 0.314\nsamples = 27\nvalue = [33, 8]\nclass = vaginal"] ;
807 -> 808 ;
809 [label="BMI <= 45.4\ngini = 0.202\nsamples = 23\nvalue = [31, 4]\nclass = vaginal"] ;
808 -> 809 ;
810 [label="BMI <= 36.85\ngini = 0.375\nsamples = 3\nvalue = [3, 1]\nclass = vaginal"] ;
809 -> 810 ;
811 [label="gini = 0.0\nsamples = 2\nvalue = [3, 0]\nclass = vaginal"] ;
810 -> 811 ;
812 [label="gini = 0.0\nsamples = 1\nvalue = [0, 1]\nclass = c-section"] ;
810 -> 812 ;
813 [label="Age_of_Mother <= 21.5\ngini = 0.175\nsamples = 20\nvalue = [28, 3]\nclass = vaginal"] ;
809 -> 813 ;
814 [label="Mothers_Height_in_Inches <= 61.5\ngini = 0.266\nsamples = 13\nvalue = [16, 3]\nclass = vaginal"] ;
813 -> 814 ;
815 [label="Induction_of_labor_Y <= 0.5\ngini = 0.375\nsamples = 7\nvalue = [9, 3]\nclass = vaginal"] ;
814 -> 815 ;
816 [label="gini = 0.444\nsamples = 4\nvalue = [6, 3]\nclass = vaginal"] ;
815 -> 816 ;
817 [label="gini = 0.0\nsamples = 3\nvalue = [3, 0]\nclass = vaginal"] ;
815 -> 817 ;
818 [label="gini = 0.0\nsamples = 6\nvalue = [7, 0]\nclass = vaginal"] ;
814 -> 818 ;
819 [label="gini = 0.0\nsamples = 7\nvalue = [12, 0]\nclass = vaginal"] ;
813 -> 819 ;
820 [label="Induction_of_labor_Y <= 0.5\ngini = 0.444\nsamples = 4\nvalue = [2, 4]\nclass = c-section"] ;
808 -> 820 ;
821 [label="Age_of_Mother <= 21.0\ngini = 0.32\nsamples = 3\nvalue = [1, 4]\nclass = c-section"] ;
820 -> 821 ;
822 [label="gini = 0.0\nsamples = 2\nvalue = [0, 4]\nclass = c-section"] ;
821 -> 822 ;
823 [label="gini = 0.0\nsamples = 1\nvalue = [1, 0]\nclass = vaginal"] ;
821 -> 823 ;
824 [label="gini = 0.0\nsamples = 1\nvalue = [1, 0]\nclass = vaginal"] ;
820 -> 824 ;
825 [label="gini = 0.0\nsamples = 1\nvalue = [2, 0]\nclass = vaginal"] ;
807 -> 825 ;
826 [label="Prior_Terminations <= 2.0\ngini = 0.493\nsamples = 41\nvalue = [26, 33]\nclass = c-section"] ;
806 -> 826 ;
827 [label="Pre_Pregnancy_Weight <= 182.0\ngini = 0.499\nsamples = 39\nvalue = [26, 28]\nclass = c-section"] ;
826 -> 827 ;
828 [label="gini = 0.0\nsamples = 2\nvalue = [0, 3]\nclass = c-section"] ;
827 -> 828 ;
829 [label="Induction_of_labor_Y <= 0.5\ngini = 0.5\nsamples = 37\nvalue = [26, 25]\nclass = vaginal"] ;
827 -> 829 ;
830 [label="Prior_Terminations <= 0.5\ngini = 0.487\nsamples = 30\nvalue = [25, 18]\nclass = vaginal"] ;
829 -> 830 ;
831 [label="BMI <= 77.5\ngini = 0.5\nsamples = 27\nvalue = [19, 18]\nclass = vaginal"] ;
830 -> 831 ;
832 [label="gini = 0.0\nsamples = 2\nvalue = [3, 0]\nclass = vaginal"] ;
831 -> 832 ;
833 [label="Mothers_Height_in_Inches <= 59.5\ngini = 0.498\nsamples = 25\nvalue = [16, 18]\nclass = c-section"] ;
831 -> 833 ;
834 [label="gini = 0.444\nsamples = 3\nvalue = [2, 4]\nclass = c-section"] ;
833 -> 834 ;
835 [label="gini = 0.5\nsamples = 22\nvalue = [14, 14]\nclass = vaginal"] ;
833 -> 835 ;
836 [label="gini = 0.0\nsamples = 3\nvalue = [6, 0]\nclass = vaginal"] ;
830 -> 836 ;
837 [label="Prior_Terminations <= 0.5\ngini = 0.219\nsamples = 7\nvalue = [1, 7]\nclass = c-section"] ;
829 -> 837 ;
838 [label="gini = 0.0\nsamples = 6\nvalue = [0, 7]\nclass = c-section"] ;
837 -> 838 ;
839 [label="gini = 0.0\nsamples = 1\nvalue = [1, 0]\nclass = vaginal"] ;
837 -> 839 ;
840 [label="gini = 0.0\nsamples = 2\nvalue = [0, 5]\nclass = c-section"] ;
826 -> 840 ;
841 [label="BMI <= 33.75\ngini = 0.5\nsamples = 55\nvalue = [45, 45]\nclass = vaginal"] ;
435 -> 841 ;
842 [label="Mothers_Height_in_Inches <= 60.5\ngini = 0.416\nsamples = 37\nvalue = [43, 18]\nclass = vaginal"] ;
841 -> 842 ;
843 [label="gini = 0.0\nsamples = 5\nvalue = [9, 0]\nclass = vaginal"] ;
842 -> 843 ;
844 [label="Age_of_Mother <= 36.5\ngini = 0.453\nsamples = 32\nvalue = [34, 18]\nclass = vaginal"] ;
842 -> 844 ;
845 [label="Induction_of_labor_Y <= 0.5\ngini = 0.386\nsamples = 28\nvalue = [34, 12]\nclass = vaginal"] ;
844 -> 845 ;
846 [label="Medical_Attendant <= 1.5\ngini = 0.32\nsamples = 18\nvalue = [24, 6]\nclass = vaginal"] ;
845 -> 846 ;
847 [label="Cigarette_Consumption <= 30.0\ngini = 0.375\nsamples = 14\nvalue = [18, 6]\nclass = vaginal"] ;
846 -> 847 ;
848 [label="Pre_Pregnancy_Weight <= 168.0\ngini = 0.245\nsamples = 11\nvalue = [18, 3]\nclass = vaginal"] ;
847 -> 848 ;
849 [label="gini = 0.0\nsamples = 7\nvalue = [13, 0]\nclass = vaginal"] ;
848 -> 849 ;
850 [label="NO_RISK <= 0.5\ngini = 0.469\nsamples = 4\nvalue = [5, 3]\nclass = vaginal"] ;
848 -> 850 ;
851 [label="gini = 0.0\nsamples = 1\nvalue = [0, 2]\nclass = c-section"] ;
850 -> 851 ;
852 [label="BMI <= 31.6\ngini = 0.278\nsamples = 3\nvalue = [5, 1]\nclass = vaginal"] ;
850 -> 852 ;
853 [label="gini = 0.0\nsamples = 1\nvalue = [0, 1]\nclass = c-section"] ;
852 -> 853 ;
854 [label="gini = 0.0\nsamples = 2\nvalue = [5, 0]\nclass = vaginal"] ;
852 -> 854 ;
855 [label="gini = 0.0\nsamples = 3\nvalue = [0, 3]\nclass = c-section"] ;
847 -> 855 ;
856 [label="gini = 0.0\nsamples = 4\nvalue = [6, 0]\nclass = vaginal"] ;
846 -> 856 ;
857 [label="Prior_Terminations <= 0.5\ngini = 0.469\nsamples = 10\nvalue = [10, 6]\nclass = vaginal"] ;
845 -> 857 ;
858 [label="Age_of_Mother <= 21.5\ngini = 0.496\nsamples = 6\nvalue = [5, 6]\nclass = c-section"] ;
857 -> 858 ;
859 [label="Age_of_Mother <= 18.5\ngini = 0.245\nsamples = 4\nvalue = [1, 6]\nclass = c-section"] ;
858 -> 859 ;
860 [label="gini = 0.0\nsamples = 1\nvalue = [1, 0]\nclass = vaginal"] ;
859 -> 860 ;
861 [label="gini = 0.0\nsamples = 3\nvalue = [0, 6]\nclass = c-section"] ;
859 -> 861 ;
862 [label="gini = 0.0\nsamples = 2\nvalue = [4, 0]\nclass = vaginal"] ;
858 -> 862 ;
863 [label="gini = 0.0\nsamples = 4\nvalue = [5, 0]\nclass = vaginal"] ;
857 -> 863 ;
864 [label="gini = 0.0\nsamples = 4\nvalue = [0, 6]\nclass = c-section"] ;
844 -> 864 ;
865 [label="Weight_Gain <= 9.5\ngini = 0.128\nsamples = 18\nvalue = [2, 27]\nclass = c-section"] ;
841 -> 865 ;
866 [label="Mothers_Height_in_Inches <= 62.5\ngini = 0.298\nsamples = 7\nvalue = [2, 9]\nclass = c-section"] ;
865 -> 866 ;
867 [label="Weight_Gain <= 1.5\ngini = 0.444\nsamples = 3\nvalue = [2, 1]\nclass = vaginal"] ;
866 -> 867 ;
868 [label="gini = 0.0\nsamples = 1\nvalue = [0, 1]\nclass = c-section"] ;
867 -> 868 ;
869 [label="gini = 0.0\nsamples = 2\nvalue = [2, 0]\nclass = vaginal"] ;
867 -> 869 ;
870 [label="gini = 0.0\nsamples = 4\nvalue = [0, 8]\nclass = c-section"] ;
866 -> 870 ;
871 [label="gini = 0.0\nsamples = 11\nvalue = [0, 18]\nclass = c-section"] ;
865 -> 871 ;
872 [label="BMI <= 30.45\ngini = 0.403\nsamples = 4595\nvalue = [5272, 2046]\nclass = vaginal"] ;
2 -> 872 ;
873 [label="Induction_of_labor_Y <= 0.5\ngini = 0.374\nsamples = 3251\nvalue = [3894, 1289]\nclass = vaginal"] ;
872 -> 873 ;
874 [label="Medical_Attendant <= 2.5\ngini = 0.405\nsamples = 2484\nvalue = [2867, 1125]\nclass = vaginal"] ;
873 -> 874 ;
875 [label="Weight_Gain <= 31.5\ngini = 0.435\nsamples = 2165\nvalue = [2387, 1119]\nclass = vaginal"] ;
874 -> 875 ;
876 [label="Weight_Gain <= 10.5\ngini = 0.411\nsamples = 1379\nvalue = [1576, 640]\nclass = vaginal"] ;
875 -> 876 ;
877 [label="NO_RISK <= 0.5\ngini = 0.455\nsamples = 170\nvalue = [175, 94]\nclass = vaginal"] ;
876 -> 877 ;
878 [label="BMI <= 23.3\ngini = 0.499\nsamples = 33\nvalue = [30, 28]\nclass = vaginal"] ;
877 -> 878 ;
879 [label="Mothers_Height_in_Inches <= 61.5\ngini = 0.18\nsamples = 5\nvalue = [1, 9]\nclass = c-section"] ;
878 -> 879 ;
880 [label="Mothers_Height_in_Inches <= 60.5\ngini = 0.444\nsamples = 2\nvalue = [1, 2]\nclass = c-section"] ;
879 -> 880 ;
881 [label="gini = 0.0\nsamples = 1\nvalue = [0, 2]\nclass = c-section"] ;
880 -> 881 ;
882 [label="gini = 0.0\nsamples = 1\nvalue = [1, 0]\nclass = vaginal"] ;
880 -> 882 ;
883 [label="gini = 0.0\nsamples = 3\nvalue = [0, 7]\nclass = c-section"] ;
879 -> 883 ;
884 [label="Pre_Pregnancy_Weight <= 150.5\ngini = 0.478\nsamples = 28\nvalue = [29, 19]\nclass = vaginal"] ;
878 -> 884 ;
885 [label="Mothers_Height_in_Inches <= 59.5\ngini = 0.311\nsamples = 18\nvalue = [21, 5]\nclass = vaginal"] ;
884 -> 885 ;
886 [label="BMI <= 27.6\ngini = 0.444\nsamples = 5\nvalue = [2, 4]\nclass = c-section"] ;
885 -> 886 ;
887 [label="gini = 0.0\nsamples = 1\nvalue = [1, 0]\nclass = vaginal"] ;
886 -> 887 ;
888 [label="Mothers_Height_in_Inches <= 58.5\ngini = 0.32\nsamples = 4\nvalue = [1, 4]\nclass = c-section"] ;
886 -> 888 ;
889 [label="Prior_Terminations <= 0.5\ngini = 0.444\nsamples = 3\nvalue = [1, 2]\nclass = c-section"] ;
888 -> 889 ;
890 [label="Age_of_Mother <= 30.5\ngini = 0.5\nsamples = 2\nvalue = [1, 1]\nclass = vaginal"] ;
889 -> 890 ;
891 [label="gini = 0.0\nsamples = 1\nvalue = [1, 0]\nclass = vaginal"] ;
890 -> 891 ;
892 [label="gini = 0.0\nsamples = 1\nvalue = [0, 1]\nclass = c-section"] ;
890 -> 892 ;
893 [label="gini = 0.0\nsamples = 1\nvalue = [0, 1]\nclass = c-section"] ;
889 -> 893 ;
894 [label="gini = 0.0\nsamples = 1\nvalue = [0, 2]\nclass = c-section"] ;
888 -> 894 ;
895 [label="Pre_Pregnancy_Weight <= 149.0\ngini = 0.095\nsamples = 13\nvalue = [19, 1]\nclass = vaginal"] ;
885 -> 895 ;
896 [label="gini = 0.0\nsamples = 10\nvalue = [15, 0]\nclass = vaginal"] ;
895 -> 896 ;
897 [label="Prior_Terminations <= 0.5\ngini = 0.32\nsamples = 3\nvalue = [4, 1]\nclass = vaginal"] ;
895 -> 897 ;
898 [label="BMI <= 27.85\ngini = 0.5\nsamples = 2\nvalue = [1, 1]\nclass = vaginal"] ;
897 -> 898 ;
899 [label="gini = 0.0\nsamples = 1\nvalue = [1, 0]\nclass = vaginal"] ;
898 -> 899 ;
900 [label="gini = 0.0\nsamples = 1\nvalue = [0, 1]\nclass = c-section"] ;
898 -> 900 ;
901 [label="gini = 0.0\nsamples = 1\nvalue = [3, 0]\nclass = vaginal"] ;
897 -> 901 ;
902 [label="Prior_Births_Living <= 1.5\ngini = 0.463\nsamples = 10\nvalue = [8, 14]\nclass = c-section"] ;
884 -> 902 ;
903 [label="Mothers_Height_in_Inches <= 62.5\ngini = 0.408\nsamples = 4\nvalue = [5, 2]\nclass = vaginal"] ;
902 -> 903 ;
904 [label="gini = 0.0\nsamples = 2\nvalue = [3, 0]\nclass = vaginal"] ;
903 -> 904 ;
905 [label="Age_of_Mother <= 27.5\ngini = 0.5\nsamples = 2\nvalue = [2, 2]\nclass = vaginal"] ;
903 -> 905 ;
906 [label="gini = 0.0\nsamples = 1\nvalue = [0, 2]\nclass = c-section"] ;
905 -> 906 ;
907 [label="gini = 0.0\nsamples = 1\nvalue = [2, 0]\nclass = vaginal"] ;
905 -> 907 ;
908 [label="BMI <= 29.65\ngini = 0.32\nsamples = 6\nvalue = [3, 12]\nclass = c-section"] ;
902 -> 908 ;
909 [label="gini = 0.0\nsamples = 4\nvalue = [0, 11]\nclass = c-section"] ;
908 -> 909 ;
910 [label="Weight_Gain <= 7.0\ngini = 0.375\nsamples = 2\nvalue = [3, 1]\nclass = vaginal"] ;
908 -> 910 ;
911 [label="gini = 0.0\nsamples = 1\nvalue = [0, 1]\nclass = c-section"] ;
910 -> 911 ;
912 [label="gini = 0.0\nsamples = 1\nvalue = [3, 0]\nclass = vaginal"] ;
910 -> 912 ;
913 [label="Marital_Status_  <= 0.5\ngini = 0.43\nsamples = 137\nvalue = [145, 66]\nclass = vaginal"] ;
877 -> 913 ;
914 [label="Pre_Pregnancy_Weight <= 102.5\ngini = 0.449\nsamples = 114\nvalue = [118, 61]\nclass = vaginal"] ;
913 -> 914 ;
915 [label="gini = 0.0\nsamples = 2\nvalue = [0, 5]\nclass = c-section"] ;
914 -> 915 ;
916 [label="Weight_Gain <= 9.5\ngini = 0.437\nsamples = 112\nvalue = [118, 56]\nclass = vaginal"] ;
914 -> 916 ;
917 [label="Pre_Pregnancy_Weight <= 151.0\ngini = 0.413\nsamples = 92\nvalue = [102, 42]\nclass = vaginal"] ;
916 -> 917 ;
918 [label="Mothers_Height_in_Inches <= 61.5\ngini = 0.365\nsamples = 64\nvalue = [76, 24]\nclass = vaginal"] ;
917 -> 918 ;
919 [label="BMI <= 28.8\ngini = 0.24\nsamples = 28\nvalue = [37, 6]\nclass = vaginal"] ;
918 -> 919 ;
920 [label="Prior_Births_Dead <= 0.5\ngini = 0.21\nsamples = 27\nvalue = [37, 5]\nclass = vaginal"] ;
919 -> 920 ;
921 [label="gini = 0.176\nsamples = 26\nvalue = [37, 4]\nclass = vaginal"] ;
920 -> 921 ;
922 [label="gini = 0.0\nsamples = 1\nvalue = [0, 1]\nclass = c-section"] ;
920 -> 922 ;
923 [label="gini = 0.0\nsamples = 1\nvalue = [0, 1]\nclass = c-section"] ;
919 -> 923 ;
924 [label="Age_of_Mother <= 36.5\ngini = 0.432\nsamples = 36\nvalue = [39, 18]\nclass = vaginal"] ;
918 -> 924 ;
925 [label="Weight_Gain <= 2.5\ngini = 0.393\nsamples = 33\nvalue = [38, 14]\nclass = vaginal"] ;
924 -> 925 ;
926 [label="gini = 0.496\nsamples = 14\nvalue = [12, 10]\nclass = vaginal"] ;
925 -> 926 ;
927 [label="gini = 0.231\nsamples = 19\nvalue = [26, 4]\nclass = vaginal"] ;
925 -> 927 ;
928 [label="Pre_Pregnancy_Weight <= 117.0\ngini = 0.32\nsamples = 3\nvalue = [1, 4]\nclass = c-section"] ;
924 -> 928 ;
929 [label="gini = 0.0\nsamples = 1\nvalue = [0, 2]\nclass = c-section"] ;
928 -> 929 ;
930 [label="gini = 0.444\nsamples = 2\nvalue = [1, 2]\nclass = c-section"] ;
928 -> 930 ;
931 [label="Weight_Gain <= 1.5\ngini = 0.483\nsamples = 28\nvalue = [26, 18]\nclass = vaginal"] ;
917 -> 931 ;
932 [label="gini = 0.0\nsamples = 9\nvalue = [11, 0]\nclass = vaginal"] ;
931 -> 932 ;
933 [label="BMI <= 29.35\ngini = 0.496\nsamples = 19\nvalue = [15, 18]\nclass = c-section"] ;
931 -> 933 ;
934 [label="Weight_Gain <= 6.5\ngini = 0.346\nsamples = 10\nvalue = [4, 14]\nclass = c-section"] ;
933 -> 934 ;
935 [label="gini = 0.444\nsamples = 7\nvalue = [4, 8]\nclass = c-section"] ;
934 -> 935 ;
936 [label="gini = 0.0\nsamples = 3\nvalue = [0, 6]\nclass = c-section"] ;
934 -> 936 ;
937 [label="Age_of_Mother <= 34.0\ngini = 0.391\nsamples = 9\nvalue = [11, 4]\nclass = vaginal"] ;
933 -> 937 ;
938 [label="gini = 0.0\nsamples = 7\nvalue = [11, 0]\nclass = vaginal"] ;
937 -> 938 ;
939 [label="gini = 0.0\nsamples = 2\nvalue = [0, 4]\nclass = c-section"] ;
937 -> 939 ;
940 [label="NO_MORBIDITY <= 0.5\ngini = 0.498\nsamples = 20\nvalue = [16, 14]\nclass = vaginal"] ;
916 -> 940 ;
941 [label="gini = 0.0\nsamples = 1\nvalue = [0, 1]\nclass = c-section"] ;
940 -> 941 ;
942 [label="Pre_Pregnancy_Weight <= 165.5\ngini = 0.495\nsamples = 19\nvalue = [16, 13]\nclass = vaginal"] ;
940 -> 942 ;
943 [label="BMI <= 22.4\ngini = 0.499\nsamples = 18\nvalue = [14, 13]\nclass = vaginal"] ;
942 -> 943 ;
944 [label="gini = 0.0\nsamples = 2\nvalue = [0, 3]\nclass = c-section"] ;
943 -> 944 ;
945 [label="Age_of_Mother <= 29.5\ngini = 0.486\nsamples = 16\nvalue = [14, 10]\nclass = vaginal"] ;
943 -> 945 ;
946 [label="gini = 0.32\nsamples = 7\nvalue = [8, 2]\nclass = vaginal"] ;
945 -> 946 ;
947 [label="gini = 0.49\nsamples = 9\nvalue = [6, 8]\nclass = c-section"] ;
945 -> 947 ;
948 [label="gini = 0.0\nsamples = 1\nvalue = [2, 0]\nclass = vaginal"] ;
942 -> 948 ;
949 [label="Prior_Births_Living <= 5.5\ngini = 0.264\nsamples = 23\nvalue = [27, 5]\nclass = vaginal"] ;
913 -> 949 ;
950 [label="Pre_Pregnancy_Weight <= 118.5\ngini = 0.225\nsamples = 22\nvalue = [27, 4]\nclass = vaginal"] ;
949 -> 950 ;
951 [label="Prior_Births_Living <= 4.0\ngini = 0.375\nsamples = 3\nvalue = [1, 3]\nclass = c-section"] ;
950 -> 951 ;
952 [label="gini = 0.0\nsamples = 2\nvalue = [0, 3]\nclass = c-section"] ;
951 -> 952 ;
953 [label="gini = 0.0\nsamples = 1\nvalue = [1, 0]\nclass = vaginal"] ;
951 -> 953 ;
954 [label="Pre_Pregnancy_Weight <= 140.5\ngini = 0.071\nsamples = 19\nvalue = [26, 1]\nclass = vaginal"] ;
950 -> 954 ;
955 [label="gini = 0.0\nsamples = 8\nvalue = [15, 0]\nclass = vaginal"] ;
954 -> 955 ;
956 [label="Mothers_Height_in_Inches <= 60.5\ngini = 0.153\nsamples = 11\nvalue = [11, 1]\nclass = vaginal"] ;
954 -> 956 ;
957 [label="Mothers_Height_in_Inches <= 59.5\ngini = 0.444\nsamples = 3\nvalue = [2, 1]\nclass = vaginal"] ;
956 -> 957 ;
958 [label="gini = 0.0\nsamples = 1\nvalue = [1, 0]\nclass = vaginal"] ;
957 -> 958 ;
959 [label="Medical_Attendant <= 1.5\ngini = 0.5\nsamples = 2\nvalue = [1, 1]\nclass = vaginal"] ;
957 -> 959 ;
960 [label="gini = 0.0\nsamples = 1\nvalue = [0, 1]\nclass = c-section"] ;
959 -> 960 ;
961 [label="gini = 0.0\nsamples = 1\nvalue = [1, 0]\nclass = vaginal"] ;
959 -> 961 ;
962 [label="gini = 0.0\nsamples = 8\nvalue = [9, 0]\nclass = vaginal"] ;
956 -> 962 ;
963 [label="gini = 0.0\nsamples = 1\nvalue = [0, 1]\nclass = c-section"] ;
949 -> 963 ;
964 [label="Age_of_Mother <= 39.5\ngini = 0.404\nsamples = 1209\nvalue = [1401, 546]\nclass = vaginal"] ;
876 -> 964 ;
965 [label="Prior_Births_Living <= 5.5\ngini = 0.393\nsamples = 1157\nvalue = [1359, 500]\nclass = vaginal"] ;
964 -> 965 ;
966 [label="Cigarette_Consumption <= 4.5\ngini = 0.39\nsamples = 1138\nvalue = [1344, 485]\nclass = vaginal"] ;
965 -> 966 ;
967 [label="Age_of_Mother <= 30.5\ngini = 0.387\nsamples = 1066\nvalue = [1260, 447]\nclass = vaginal"] ;
966 -> 967 ;
968 [label="Prior_Births_Living <= 1.5\ngini = 0.361\nsamples = 626\nvalue = [764, 236]\nclass = vaginal"] ;
967 -> 968 ;
969 [label="Pre_Pregnancy_Weight <= 138.5\ngini = 0.378\nsamples = 355\nvalue = [428, 145]\nclass = vaginal"] ;
968 -> 969 ;
970 [label="Weight_Gain <= 27.5\ngini = 0.341\nsamples = 237\nvalue = [308, 86]\nclass = vaginal"] ;
969 -> 970 ;
971 [label="Prior_Terminations <= 1.5\ngini = 0.298\nsamples = 180\nvalue = [242, 54]\nclass = vaginal"] ;
970 -> 971 ;
972 [label="gini = 0.282\nsamples = 171\nvalue = [234, 48]\nclass = vaginal"] ;
971 -> 972 ;
973 [label="gini = 0.49\nsamples = 9\nvalue = [8, 6]\nclass = vaginal"] ;
971 -> 973 ;
974 [label="Age_of_Mother <= 25.5\ngini = 0.44\nsamples = 57\nvalue = [66, 32]\nclass = vaginal"] ;
970 -> 974 ;
975 [label="gini = 0.302\nsamples = 30\nvalue = [44, 10]\nclass = vaginal"] ;
974 -> 975 ;
976 [label="gini = 0.5\nsamples = 27\nvalue = [22, 22]\nclass = vaginal"] ;
974 -> 976 ;
977 [label="Mothers_Height_in_Inches <= 59.5\ngini = 0.442\nsamples = 118\nvalue = [120, 59]\nclass = vaginal"] ;
969 -> 977 ;
978 [label="BMI <= 29.1\ngini = 0.375\nsamples = 6\nvalue = [3, 9]\nclass = c-section"] ;
977 -> 978 ;
979 [label="gini = 0.0\nsamples = 2\nvalue = [0, 4]\nclass = c-section"] ;
978 -> 979 ;
